{"learner":{"attributes":{"best_iteration":"108","best_score":"0.5083528929193394","scikit_learn":"{\"_estimator_type\": \"classifier\"}"},"feature_names":["Age_Health_Interaction","Risk_Score","GenHlth","Health_Score","BMI_BP_Interaction","Age_BMI_Interaction","HighBP","Total_Risk_Factors","BMI_Squared","BMI","BMI_Category","HighChol","Age","Income","DiffWalk","Age_Group"],"feature_types":["int","float","int","float","int","int","int","int","int","int","int","int","int","int","int","int"],"gradient_booster":{"model":{"gbtree_model_param":{"num_parallel_tree":"1","num_trees":"129"},"iteration_indptr":[0,1,2,3,4,5,6,7,8,9,10,11,12,13,14,15,16,17,18,19,20,21,22,23,24,25,26,27,28,29,30,31,32,33,34,35,36,37,38,39,40,41,42,43,44,45,46,47,48,49,50,51,52,53,54,55,56,57,58,59,60,61,62,63,64,65,66,67,68,69,70,71,72,73,74,75,76,77,78,79,80,81,82,83,84,85,86,87,88,89,90,91,92,93,94,95,96,97,98,99,100,101,102,103,104,105,106,107,108,109,110,111,112,113,114,115,116,117,118,119,120,121,122,123,124,125,126,127,128,129],"tree_info":[0,0,0,0,0,0,0,0,0,0,0,0,0,0,0,0,0,0,0,0,0,0,0,0,0,0,0,0,0,0,0,0,0,0,0,0,0,0,0,0,0,0,0,0,0,0,0,0,0,0,0,0,0,0,0,0,0,0,0,0,0,0,0,0,0,0,0,0,0,0,0,0,0,0,0,0,0,0,0,0,0,0,0,0,0,0,0,0,0,0,0,0,0,0,0,0,0,0,0,0,0,0,0,0,0,0,0,0,0,0,0,0,0,0,0,0,0,0,0,0,0,0,0,0,0,0,0,0,0],"trees":[{"base_weights":[5.501203E-3,-1.0828673E0,6.2942404E-1,-1.4074904E0,-8.324476E-2,5.098856E-2,1.0397456E0,-1.6895605E0,-1.0832822E0,-6.211956E-1,3.3096302E-1,-5.0014275E-1,4.0359658E-1,5.7422215E-1,1.2068948E0,-1.7741785E0,-1.3959101E0,-1.2893604E0,-5.9224E-1,-1.189722E0,-3.6590883E-1,8.1059225E-3,9.139698E-1,-6.6423213E-1,2.1001054E-1,-8.7901324E-2,5.785881E-1,2.5082982E-1,9.2318577E-1,9.6189064E-1,1.4269536E0,-1.7822949E0,-3.030613E-1,-1.4804779E0,-6.052975E-1,-1.5096004E0,-1.0017215E0,-8.1719935E-1,-2.1816103E-1,-1.3545997E0,-1.0529659E-1,-6.990642E-1,-2.3175549E-2,-7.311497E-2,8.028855E-1,7.021442E-1,1.1209527E0,-1.0257833E0,-4.4163796E-1,-3.8130186E-2,4.3474764E-1,-5.870998E-1,2.7334613E-1,2.266003E-1,7.4291575E-1,-1.5610445E-1,4.2361012E-1,5.785813E-1,1.0664542E0,5.5386204E-1,1.0667746E0,1.2356923E0,1.5215533E0,-9.2491776E-2,-7.950028E-2,9.998589E-3,-4.117782E-2,-7.539561E-2,7.690815E-3,-3.469559E-2,5.5554576E-2,-7.820081E-2,-6.1977055E-2,-5.6179922E-2,-2.7878985E-2,-6.2311776E-2,-3.1193187E-2,-1.760859E-2,4.5712624E-2,-7.46429E-2,-1.2282343E-2,-3.0234158E-2,2.4322752E-2,-4.4209786E-2,-1.4574594E-2,-8.697401E-3,2.2145934E-2,-2.492482E-2,3.1354974E-3,2.1274908E-2,7.4466474E-2,-2.3078417E-2,3.861718E-2,4.769057E-2,6.91258E-2,-6.242744E-2,-3.5335086E-2,-3.0204982E-2,-9.427543E-3,-1.0346557E-2,5.880621E-3,6.1594066E-3,3.4385618E-2,-5.373308E-2,-1.7038789E-2,2.422489E-3,2.9822811E-2,-9.547919E-3,2.3675123E-2,3.141242E-2,5.5123527E-2,-1.2031826E-2,6.0958397E-3,1.090938E-2,3.3421792E-2,1.695732E-2,4.2280138E-2,7.116943E-2,4.8083346E-2,1.3891901E-2,4.0349122E-2,4.370509E-2,5.979651E-2,5.2311417E-2,6.493009E-2,6.2464733E-2,7.882243E-2],"categories":[],"categories_nodes":[],"categories_segments":[],"categories_sizes":[],"default_left":[0,0,0,0,0,0,0,0,0,0,0,0,0,0,0,0,0,0,0,0,0,0,0,0,0,0,0,0,0,0,0,0,0,0,0,0,0,0,0,0,0,0,0,0,0,0,0,0,0,0,0,0,0,0,0,0,0,0,0,0,0,0,0,0,0,0,0,0,0,0,0,0,0,0,0,0,0,0,0,0,0,0,0,0,0,0,0,0,0,0,0,0,0,0,0,0,0,0,0,0,0,0,0,0,0,0,0,0,0,0,0,0,0,0,0,0,0,0,0,0,0,0,0,0,0,0,0],"id":0,"left_children":[1,3,5,7,9,11,13,15,17,19,21,23,25,27,29,31,33,35,37,39,41,43,45,47,49,51,53,55,57,59,61,63,65,67,69,71,73,75,77,79,81,83,85,87,89,91,93,95,97,99,101,103,105,107,109,111,113,115,117,119,121,123,125,-1,-1,-1,-1,-1,-1,-1,-1,-1,-1,-1,-1,-1,-1,-1,-1,-1,-1,-1,-1,-1,-1,-1,-1,-1,-1,-1,-1,-1,-1,-1,-1,-1,-1,-1,-1,-1,-1,-1,-1,-1,-1,-1,-1,-1,-1,-1,-1,-1,-1,-1,-1,-1,-1,-1,-1,-1,-1,-1,-1,-1,-1,-1,-1],"loss_changes":[7.6663965E3,1.3347969E3,1.7031316E3,2.8214355E2,2.2514583E2,5.7912085E2,3.2596094E2,3.8740234E1,1.4571338E2,6.335251E1,1.07470726E2,1.3563312E2,1.5634882E2,1.2514719E2,1.6511768E2,1.47907715E1,2.4226624E1,6.3025146E1,3.5986282E1,2.412915E1,3.4781197E1,2.3846376E1,8.135223E0,7.557971E1,1.2229423E1,8.636022E1,7.7353516E1,4.0705437E1,2.574704E1,6.2072754E1,2.7516846E1,1.3640625E1,2.3247547E0,1.5419983E1,6.5506735E0,6.5112305E0,2.344809E1,2.1452576E1,2.5020197E1,1.768692E1,5.9088945E0,1.1399986E1,1.0706016E1,1.9401134E1,8.238935E0,8.791176E0,3.107788E0,2.465326E1,2.400119E1,2.7847352E0,8.97884E0,2.3773521E1,2.0172327E1,4.421556E1,3.695999E1,4.0951343E0,2.0272995E1,9.878765E0,1.2694397E1,2.084079E1,2.7914307E1,5.1134644E0,1.4212891E1,0E0,0E0,0E0,0E0,0E0,0E0,0E0,0E0,0E0,0E0,0E0,0E0,0E0,0E0,0E0,0E0,0E0,0E0,0E0,0E0,0E0,0E0,0E0,0E0,0E0,0E0,0E0,0E0,0E0,0E0,0E0,0E0,0E0,0E0,0E0,0E0,0E0,0E0,0E0,0E0,0E0,0E0,0E0,0E0,0E0,0E0,0E0,0E0,0E0,0E0,0E0,0E0,0E0,0E0,0E0,0E0,0E0,0E0,0E0,0E0,0E0,0E0,0E0,0E0],"parents":[2147483647,0,0,1,1,2,2,3,3,4,4,5,5,6,6,7,7,8,8,9,9,10,10,11,11,12,12,13,13,14,14,15,15,16,16,17,17,18,18,19,19,20,20,21,21,22,22,23,23,24,24,25,25,26,26,27,27,28,28,29,29,30,30,31,31,32,32,33,33,34,34,35,35,36,36,37,37,38,38,39,39,40,40,41,41,42,42,43,43,44,44,45,45,46,46,47,47,48,48,49,49,50,50,51,51,52,52,53,53,54,54,55,55,56,56,57,57,58,58,59,59,60,60,61,61,62,62],"right_children":[2,4,6,8,10,12,14,16,18,20,22,24,26,28,30,32,34,36,38,40,42,44,46,48,50,52,54,56,58,60,62,64,66,68,70,72,74,76,78,80,82,84,86,88,90,92,94,96,98,100,102,104,106,108,110,112,114,116,118,120,122,124,126,-1,-1,-1,-1,-1,-1,-1,-1,-1,-1,-1,-1,-1,-1,-1,-1,-1,-1,-1,-1,-1,-1,-1,-1,-1,-1,-1,-1,-1,-1,-1,-1,-1,-1,-1,-1,-1,-1,-1,-1,-1,-1,-1,-1,-1,-1,-1,-1,-1,-1,-1,-1,-1,-1,-1,-1,-1,-1,-1,-1,-1,-1,-1,-1],"split_conditions":[2E1,2.6E1,2.6E1,1.1E1,1.7E0,2.7E1,2.7E1,1.3E0,9E2,1.1E1,3.4E1,1.024E3,1.3E0,3.2E1,3.2E1,4.8333335E0,1.089E3,1.3E0,1.3E0,2.73E2,3.2E1,1E0,3.8E1,1.3E0,1.3E0,2.64E2,5.76E2,1.7E0,1.7E0,1.7E0,3.5333333E0,8.41E2,5.366667E0,3.3E0,3.1E0,7.84E2,2.8E0,1.3E1,3.8E0,4E1,3.3E1,2.45E2,4E1,1.1E1,2.7E2,9E0,3.1E0,7.29E2,1.7E0,2.2E1,1.225E3,5.29E2,1.024E3,2.8E0,1.024E3,3.25E2,2.9E1,3.7E1,2.46E2,3.5E1,3.5333333E0,1.7E0,1.7E0,-9.2491776E-2,-7.950028E-2,9.998589E-3,-4.117782E-2,-7.539561E-2,7.690815E-3,-3.469559E-2,5.5554576E-2,-7.820081E-2,-6.1977055E-2,-5.6179922E-2,-2.7878985E-2,-6.2311776E-2,-3.1193187E-2,-1.760859E-2,4.5712624E-2,-7.46429E-2,-1.2282343E-2,-3.0234158E-2,2.4322752E-2,-4.4209786E-2,-1.4574594E-2,-8.697401E-3,2.2145934E-2,-2.492482E-2,3.1354974E-3,2.1274908E-2,7.4466474E-2,-2.3078417E-2,3.861718E-2,4.769057E-2,6.91258E-2,-6.242744E-2,-3.5335086E-2,-3.0204982E-2,-9.427543E-3,-1.0346557E-2,5.880621E-3,6.1594066E-3,3.4385618E-2,-5.373308E-2,-1.7038789E-2,2.422489E-3,2.9822811E-2,-9.547919E-3,2.3675123E-2,3.141242E-2,5.5123527E-2,-1.2031826E-2,6.0958397E-3,1.090938E-2,3.3421792E-2,1.695732E-2,4.2280138E-2,7.116943E-2,4.8083346E-2,1.3891901E-2,4.0349122E-2,4.370509E-2,5.979651E-2,5.2311417E-2,6.493009E-2,6.2464733E-2,7.882243E-2],"split_indices":[0,4,4,0,1,0,0,1,8,0,4,8,1,4,4,3,8,1,1,5,4,14,4,1,1,5,8,1,1,1,3,8,3,1,1,8,1,0,3,4,4,5,4,0,5,0,3,8,1,0,8,8,8,1,8,5,4,4,5,0,3,1,1,0,0,0,0,0,0,0,0,0,0,0,0,0,0,0,0,0,0,0,0,0,0,0,0,0,0,0,0,0,0,0,0,0,0,0,0,0,0,0,0,0,0,0,0,0,0,0,0,0,0,0,0,0,0,0,0,0,0,0,0,0,0,0,0],"split_type":[0,0,0,0,0,0,0,0,0,0,0,0,0,0,0,0,0,0,0,0,0,0,0,0,0,0,0,0,0,0,0,0,0,0,0,0,0,0,0,0,0,0,0,0,0,0,0,0,0,0,0,0,0,0,0,0,0,0,0,0,0,0,0,0,0,0,0,0,0,0,0,0,0,0,0,0,0,0,0,0,0,0,0,0,0,0,0,0,0,0,0,0,0,0,0,0,0,0,0,0,0,0,0,0,0,0,0,0,0,0,0,0,0,0,0,0,0,0,0,0,0,0,0,0,0,0,0],"sum_hessian":[1.128775E4,4.11275E3,7.175E3,3.10425E3,1.0085E3,2.978E3,4.197E3,1.65775E3,1.4465E3,4.385E2,5.7E2,1.16175E3,1.81625E3,1.11E3,3.087E3,1.283E3,3.7475E2,1.01775E3,4.2875E2,1.3475E2,3.0375E2,3.675E2,2.025E2,9.4375E2,2.18E2,4.77E2,1.33925E3,5.77E2,5.33E2,1.46325E3,1.62375E3,1.27575E3,7.25E0,3.3775E2,3.7E1,5.74E2,4.4375E2,2.67E2,1.6175E2,1.1675E2,1.8E1,1.535E2,1.5025E2,3.3425E2,3.325E1,1.0225E2,1.0025E2,3.5825E2,5.855E2,1.04E2,1.14E2,2E2,2.77E2,4.27E2,9.1225E2,1.72E2,4.05E2,1.58E2,3.75E2,3.005E2,1.16275E3,5.42E2,1.08175E3,9.3775E2,3.38E2,4E0,3.25E0,3.3225E2,5.5E0,3.575E1,1.25E0,4.7375E2,1.0025E2,3.47E2,9.675E1,8.125E1,1.8575E2,1.4525E2,1.65E1,1.035E2,1.325E1,9.75E0,8.25E0,1.0475E2,4.875E1,1.14E2,3.625E1,8.025E1,2.54E2,2.25E1,1.075E1,5.5E0,9.675E1,6.4E1,3.625E1,2.0925E2,1.49E2,3.5575E2,2.2975E2,4.975E1,5.425E1,5.175E1,6.225E1,6.6E1,1.34E2,1.64E2,1.13E2,1.5875E2,2.6825E2,6.9375E2,2.185E2,1.32E2,4E1,2.2125E2,1.8375E2,8.45E1,7.35E1,8.225E1,2.9275E2,1.4475E2,1.5575E2,4.6975E2,6.93E2,1.395E2,4.025E2,1.855E2,8.9625E2],"tree_param":{"num_deleted":"0","num_feature":"16","num_nodes":"127","size_leaf_vector":"1"}},{"base_weights":[4.3007387E-3,-1.0431039E0,5.992965E-1,-1.3449613E0,-1.15096696E-1,8.9392304E-2,1.0268523E0,-1.6180141E0,-1.0333191E0,-5.9109396E-1,2.580904E-1,-4.3202692E-1,4.143333E-1,5.9764004E-1,1.1771898E0,-1.700173E0,-1.381984E0,-1.1747339E0,-3.2227793E-1,-1.1818237E0,-3.238673E-1,-1.2587865E-1,6.924888E-1,-5.505896E-1,1.2627332E-1,1.8422557E-1,7.110667E-1,3.0089128E-1,8.7053365E-1,9.494544E-1,1.3514658E0,-1.7254623E0,-9.152737E-1,-1.4112227E0,5.9373355E-1,-1.3872036E0,-8.9983284E-1,-5.244072E-1,1.2828712E-1,-1.3059156E0,1.9733116E-1,-6.194042E-1,-2.4385903E-2,-6.3229364E-1,3.9390817E-2,5.0414884E-1,1.0129757E0,-7.545185E-1,-5.2635133E-2,9.672115E-3,6.7544395E-1,-3.5345715E-1,4.2315662E-1,3.8641587E-1,8.5560584E-1,9.273342E-2,5.886998E-1,5.358031E-1,1.0111204E0,5.149048E-1,1.055901E0,1.0569156E0,1.4274888E0,-8.83694E-2,-7.7764146E-2,-2.37746E-2,-6.1630834E-2,-7.380896E-2,-4.7069352E-2,-4.6390262E-3,6.0662974E-2,-7.483622E-2,-5.6491584E-2,-5.0720662E-2,-2.6598735E-2,-3.8681313E-2,-4.992942E-3,-1.428923E-2,2.1268904E-2,-6.923168E-2,2.5358802E-2,-1.3968075E-2,3.498137E-2,-3.413784E-2,-9.065435E-4,-7.974039E-3,2.146E-2,-4.3613262E-2,8.896432E-4,-4.2850687E-4,2.2882681E-2,1.4231324E-2,3.5951804E-2,2.9083407E-2,5.319321E-2,-4.8695453E-2,-2.6210977E-2,-2.2846216E-2,2.9979057E-3,-2.4566343E-3,4.0342536E-2,-1.8038721E-3,4.918177E-2,-3.162768E-2,-7.778361E-3,1.0928568E-2,3.5536166E-2,-6.5119057E-3,2.3454389E-2,3.3413637E-2,5.1636953E-2,-9.6172234E-4,1.1591005E-2,1.5026273E-2,4.133808E-2,1.694577E-2,3.772884E-2,6.715542E-2,4.551519E-2,8.515057E-3,3.3832494E-2,4.7024265E-2,6.229582E-2,4.689127E-2,6.4937025E-2,6.647066E-2,7.549444E-2],"categories":[],"categories_nodes":[],"categories_segments":[],"categories_sizes":[],"default_left":[0,0,0,0,0,0,0,0,0,0,0,0,0,0,0,0,0,0,0,0,0,0,0,0,0,0,0,0,0,0,0,0,0,0,0,0,0,0,0,0,0,0,0,0,0,0,0,0,0,0,0,0,0,0,0,0,0,0,0,0,0,0,0,0,0,0,0,0,0,0,0,0,0,0,0,0,0,0,0,0,0,0,0,0,0,0,0,0,0,0,0,0,0,0,0,0,0,0,0,0,0,0,0,0,0,0,0,0,0,0,0,0,0,0,0,0,0,0,0,0,0,0,0,0,0,0,0],"id":1,"left_children":[1,3,5,7,9,11,13,15,17,19,21,23,25,27,29,31,33,35,37,39,41,43,45,47,49,51,53,55,57,59,61,63,65,67,69,71,73,75,77,79,81,83,85,87,89,91,93,95,97,99,101,103,105,107,109,111,113,115,117,119,121,123,125,-1,-1,-1,-1,-1,-1,-1,-1,-1,-1,-1,-1,-1,-1,-1,-1,-1,-1,-1,-1,-1,-1,-1,-1,-1,-1,-1,-1,-1,-1,-1,-1,-1,-1,-1,-1,-1,-1,-1,-1,-1,-1,-1,-1,-1,-1,-1,-1,-1,-1,-1,-1,-1,-1,-1,-1,-1,-1,-1,-1,-1,-1,-1,-1],"loss_changes":[7.0653257E3,1.1503594E3,1.5761411E3,2.6203564E2,1.794133E2,5.590542E2,2.5304492E2,2.964746E1,1.4542078E2,6.967319E1,9.4553085E1,8.3929794E1,1.3866016E2,8.251074E1,1.14264404E2,2.262915E1,2.5757874E1,6.9371704E1,2.2099428E1,2.3849426E1,2.715147E1,2.5256832E1,1.5538116E1,1.06094025E2,1.4255686E1,1.4740157E2,4.1312805E1,2.9372398E1,2.449057E1,5.7991577E1,3.536914E1,5.67334E0,5.0240746E0,1.1592651E1,3.0875638E0,1.7480225E1,2.179715E1,1.7613129E1,9.436663E0,1.8771103E1,3.128134E0,5.870838E0,9.4740925E0,1.1596697E1,4.5824356E0,7.789116E0,1.5195236E0,3.6950073E1,1.3899358E1,8.699658E0,8.586176E0,1.9408058E1,4.655847E1,1.1816181E1,1.9658875E1,4.4618874E0,1.3881485E1,6.612854E0,1.1277588E1,1.3871811E1,2.1098999E1,8.622894E0,8.54834E0,0E0,0E0,0E0,0E0,0E0,0E0,0E0,0E0,0E0,0E0,0E0,0E0,0E0,0E0,0E0,0E0,0E0,0E0,0E0,0E0,0E0,0E0,0E0,0E0,0E0,0E0,0E0,0E0,0E0,0E0,0E0,0E0,0E0,0E0,0E0,0E0,0E0,0E0,0E0,0E0,0E0,0E0,0E0,0E0,0E0,0E0,0E0,0E0,0E0,0E0,0E0,0E0,0E0,0E0,0E0,0E0,0E0,0E0,0E0,0E0,0E0,0E0,0E0,0E0],"parents":[2147483647,0,0,1,1,2,2,3,3,4,4,5,5,6,6,7,7,8,8,9,9,10,10,11,11,12,12,13,13,14,14,15,15,16,16,17,17,18,18,19,19,20,20,21,21,22,22,23,23,24,24,25,25,26,26,27,27,28,28,29,29,30,30,31,31,32,32,33,33,34,34,35,35,36,36,37,37,38,38,39,39,40,40,41,41,42,42,43,43,44,44,45,45,46,46,47,47,48,48,49,49,50,50,51,51,52,52,53,53,54,54,55,55,56,56,57,57,58,58,59,59,60,60,61,61,62,62],"right_children":[2,4,6,8,10,12,14,16,18,20,22,24,26,28,30,32,34,36,38,40,42,44,46,48,50,52,54,56,58,60,62,64,66,68,70,72,74,76,78,80,82,84,86,88,90,92,94,96,98,100,102,104,106,108,110,112,114,116,118,120,122,124,126,-1,-1,-1,-1,-1,-1,-1,-1,-1,-1,-1,-1,-1,-1,-1,-1,-1,-1,-1,-1,-1,-1,-1,-1,-1,-1,-1,-1,-1,-1,-1,-1,-1,-1,-1,-1,-1,-1,-1,-1,-1,-1,-1,-1,-1,-1,-1,-1,-1,-1,-1,-1,-1,-1,-1,-1,-1,-1,-1,-1,-1,-1,-1,-1],"split_conditions":[2E1,2.6E1,2.7E1,1.1E1,1.7E0,2.7E1,2.7E1,8.41E2,1.089E3,1.1E1,3.2E1,1.024E3,1.8E0,3.2E1,3.2E1,2.8E0,1.5E0,1.3E0,1.521E3,2.94E2,3.2E1,1.1E1,3.8E1,1.7E0,1.681E3,6.25E2,5.76E2,3E0,1.7E0,1.7E0,1.7E0,1.3E0,2.4E1,1.521E3,2.4E2,7.84E2,1.7E0,1.3E0,1.5E1,4.6E1,3.3E2,3.1E2,4E1,2.64E2,4.6E0,3E0,4E0,6.76E2,5.29E2,2.8E0,1E0,1.3E0,3.12E2,1.4E1,3.1E0,1E0,2.9E1,3.7E1,2.46E2,3.2E1,4E1,4E1,3.6E1,-8.83694E-2,-7.7764146E-2,-2.37746E-2,-6.1630834E-2,-7.380896E-2,-4.7069352E-2,-4.6390262E-3,6.0662974E-2,-7.483622E-2,-5.6491584E-2,-5.0720662E-2,-2.6598735E-2,-3.8681313E-2,-4.992942E-3,-1.428923E-2,2.1268904E-2,-6.923168E-2,2.5358802E-2,-1.3968075E-2,3.498137E-2,-3.413784E-2,-9.065435E-4,-7.974039E-3,2.146E-2,-4.3613262E-2,8.896432E-4,-4.2850687E-4,2.2882681E-2,1.4231324E-2,3.5951804E-2,2.9083407E-2,5.319321E-2,-4.8695453E-2,-2.6210977E-2,-2.2846216E-2,2.9979057E-3,-2.4566343E-3,4.0342536E-2,-1.8038721E-3,4.918177E-2,-3.162768E-2,-7.778361E-3,1.0928568E-2,3.5536166E-2,-6.5119057E-3,2.3454389E-2,3.3413637E-2,5.1636953E-2,-9.6172234E-4,1.1591005E-2,1.5026273E-2,4.133808E-2,1.694577E-2,3.772884E-2,6.715542E-2,4.551519E-2,8.515057E-3,3.3832494E-2,4.7024265E-2,6.229582E-2,4.689127E-2,6.4937025E-2,6.647066E-2,7.549444E-2],"split_indices":[0,4,4,0,1,0,0,8,8,0,4,8,1,4,4,1,1,1,8,5,4,0,4,1,8,8,8,7,1,1,1,1,4,8,5,8,1,1,0,4,5,5,4,5,1,7,12,8,8,1,7,1,5,4,1,11,4,4,5,0,0,4,0,0,0,0,0,0,0,0,0,0,0,0,0,0,0,0,0,0,0,0,0,0,0,0,0,0,0,0,0,0,0,0,0,0,0,0,0,0,0,0,0,0,0,0,0,0,0,0,0,0,0,0,0,0,0,0,0,0,0,0,0,0,0,0,0],"split_type":[0,0,0,0,0,0,0,0,0,0,0,0,0,0,0,0,0,0,0,0,0,0,0,0,0,0,0,0,0,0,0,0,0,0,0,0,0,0,0,0,0,0,0,0,0,0,0,0,0,0,0,0,0,0,0,0,0,0,0,0,0,0,0,0,0,0,0,0,0,0,0,0,0,0,0,0,0,0,0,0,0,0,0,0,0,0,0,0,0,0,0,0,0,0,0,0,0,0,0,0,0,0,0,0,0,0,0,0,0,0,0,0,0,0,0,0,0,0,0,0,0,0,0,0,0,0,0],"sum_hessian":[1.1335144E4,4.106133E3,7.2290107E3,3.0979866E3,1.0081463E3,3.297551E3,3.9314595E3,1.6489913E3,1.4489951E3,4.4278876E2,5.6535754E2,1.2658942E3,2.0316569E3,1.0211271E3,2.9103325E3,1.218607E3,4.3038422E2,1.208076E3,2.4091914E2,1.3684888E2,3.0593988E2,3.0047498E2,2.6488257E2,1.0441652E3,2.21729E2,1.1452056E3,8.8645135E2,4.9018967E2,5.3093744E2,1.2644532E3,1.6458792E3,1.1794086E3,3.9198532E1,4.2438937E2,5.9948373E0,6.79132E2,5.28944E2,1.6619708E2,7.4722046E1,1.25600815E2,1.1248053E1,1.5344633E2,1.5249355E2,7.3237236E1,2.2723773E2,1.6845816E2,9.642442E1,7.404224E2,3.0374277E2,1.8373547E2,3.7993534E1,3.521836E2,7.93022E2,2.7421268E2,6.1223865E2,2.852236E2,2.0496606E2,1.5846088E2,3.7247653E2,2.4994298E2,1.0145103E3,3.4070923E2,1.3051699E3,9.387504E2,2.4065813E2,1.747693E1,2.1721603E1,3.7096082E2,5.3428577E1,3.2469928E0,2.7478447E0,4.730271E2,2.061049E2,4.019783E2,1.2696569E2,1.04204544E2,6.1992542E1,3.1231323E1,4.3490726E1,1.2060106E2,4.9997573E0,5.9988317E0,5.2492213E0,1.3869711E2,1.4749221E1,1.1799779E2,3.4495758E1,5.3241875E1,1.9995363E1,2.0474028E2,2.2497452E1,8.448022E1,8.3977936E1,1.148798E1,8.493645E1,3.7753815E2,3.628843E2,6.549856E1,2.382442E2,1.7198701E2,1.1748455E1,1.1749777E1,2.624376E1,1.4520103E2,2.0698256E2,4.643949E2,3.2862708E2,3.7745934E1,2.3646677E2,2.998719E2,3.1236676E2,1.5849406E2,1.2672953E2,9.374719E1,1.1121887E2,8.474388E1,7.3716995E1,8.3893616E1,2.8858292E2,8.049609E1,1.6944688E2,6.348502E2,3.7966013E2,2.315547E2,1.0915452E2,6.0372565E2,7.014443E2],"tree_param":{"num_deleted":"0","num_feature":"16","num_nodes":"127","size_leaf_vector":"1"}},{"base_weights":[-6.26407E-3,-1.0008253E0,5.5954254E-1,-1.2293562E0,8.246717E-2,6.233552E-2,9.3330765E-1,-1.5219419E0,-8.880571E-1,-2.9071948E-1,6.725286E-1,-3.7309483E-1,4.9932936E-1,6.463951E-1,1.2418728E0,-1.5577464E0,-7.449222E-1,-1.2429379E0,-5.4761934E-1,-3.7373057E-1,6.401989E-1,4.6944112E-1,1.0175627E0,-7.5716573E-1,-6.913688E-2,9.4216086E-2,7.619409E-1,2.1222055E-2,7.805846E-1,1.0304842E0,1.3684472E0,-1.5753667E0,-4.109987E-1,-1.2419299E0,-3.4208915E-1,-1.4091461E0,-1.0105793E0,-8.3196896E-1,-3.2388803E-1,-7.560136E-1,-2.0577034E-1,4.317354E-1,1.0381542E0,4.0855828E-1,1.3263148E0,-1.3350335E-2,1.036175E0,-1.0758693E0,-5.401541E-1,-3.58663E-1,1.5675275E-1,-1.6958873E-1,3.4199762E-1,3.120788E-1,8.780465E-1,-7.337961E-1,1.0481705E-1,3.58081E-1,8.6732304E-1,8.730046E-1,1.1403979E0,1.2225037E0,1.448318E0,-8.074966E-2,-6.285115E-2,-2.6882684E-2,4.65855E-2,-6.992131E-2,-8.137407E-3,-2.436815E-2,5.6467224E-2,-1.5515779E-2,-7.1426265E-2,-5.2283444E-2,-6.4312518E-3,-4.734102E-2,-8.912489E-3,-2.4423398E-2,2.1876397E-3,-6.740668E-2,-3.290282E-2,-5.297165E-2,-7.3440964E-3,4.173341E-2,7.543459E-3,1.16381645E-2,6.439123E-2,1.6339218E-2,4.6800174E-2,2.3127483E-2,7.921E-2,4.1826963E-2,5.9677657E-2,-5.8461513E-2,-3.2527477E-2,-3.4585983E-2,-1.8142771E-2,-3.1720255E-2,-8.666505E-3,5.421097E-4,2.807251E-2,-2.454219E-2,-1.1399791E-3,-1.0759748E-3,2.4364399E-2,1.2160431E-3,3.623126E-2,3.1466123E-2,5.0852668E-2,-4.5400307E-2,-1.0588365E-2,-3.642976E-3,1.3677867E-2,3.9739585E-3,2.6671533E-2,3.3444863E-2,5.172959E-2,3.415458E-2,5.090828E-2,5.746882E-2,9.14263E-3,4.0642574E-2,6.2236883E-2,7.006829E-2,7.6034464E-2],"categories":[],"categories_nodes":[],"categories_segments":[],"categories_sizes":[],"default_left":[0,0,0,0,0,0,0,0,0,0,0,0,0,0,0,0,0,0,0,0,0,0,0,0,0,0,0,0,0,0,0,0,0,0,0,0,0,0,0,0,0,0,0,0,0,0,0,0,0,0,0,0,0,0,0,0,0,0,0,0,0,0,0,0,0,0,0,0,0,0,0,0,0,0,0,0,0,0,0,0,0,0,0,0,0,0,0,0,0,0,0,0,0,0,0,0,0,0,0,0,0,0,0,0,0,0,0,0,0,0,0,0,0,0,0,0,0,0,0,0,0,0,0,0,0],"id":2,"left_children":[1,3,5,7,9,11,13,15,17,19,21,23,25,27,29,31,33,35,37,39,41,43,45,47,49,51,53,55,57,59,61,63,65,67,69,71,73,75,77,79,81,83,85,87,89,-1,91,93,95,97,99,101,103,105,107,109,111,113,115,117,119,121,123,-1,-1,-1,-1,-1,-1,-1,-1,-1,-1,-1,-1,-1,-1,-1,-1,-1,-1,-1,-1,-1,-1,-1,-1,-1,-1,-1,-1,-1,-1,-1,-1,-1,-1,-1,-1,-1,-1,-1,-1,-1,-1,-1,-1,-1,-1,-1,-1,-1,-1,-1,-1,-1,-1,-1,-1,-1,-1,-1,-1,-1,-1],"loss_changes":[6.3503647E3,1.0131499E3,1.3366606E3,3.3609668E2,1.5737773E2,5.8773425E2,3.6271533E2,4.941992E1,1.8805298E2,3.408311E1,1.8921654E1,1.8057458E2,1.6393094E2,1.7865479E2,5.149536E1,3.445166E1,1.5992725E1,2.808435E1,5.056755E1,2.5703259E1,2.5569448E0,8.64653E0,2.708664E0,4.6687286E1,5.6614925E1,3.9763012E1,4.8569458E1,2.3896158E1,6.3946655E1,1.1892761E1,1.2610596E1,1.9545898E1,5.2013807E0,5.908024E0,1.0527008E1,8.988281E0,9.835663E0,2.6202698E1,2.7180012E1,6.221573E0,1.3979235E1,2.7580848E0,2.0610762E0,6.849144E0,1.770731E0,0E0,2.1582184E0,1.0192627E1,1.0728943E1,1.9274689E1,2.8720514E1,1.3893885E1,1.6571186E1,2.2940376E1,2.5039856E1,3.2402668E0,1.0232901E1,1.4630856E1,4.7568237E1,7.8598022E0,3.5318604E0,3.0211792E0,5.5981445E-1,0E0,0E0,0E0,0E0,0E0,0E0,0E0,0E0,0E0,0E0,0E0,0E0,0E0,0E0,0E0,0E0,0E0,0E0,0E0,0E0,0E0,0E0,0E0,0E0,0E0,0E0,0E0,0E0,0E0,0E0,0E0,0E0,0E0,0E0,0E0,0E0,0E0,0E0,0E0,0E0,0E0,0E0,0E0,0E0,0E0,0E0,0E0,0E0,0E0,0E0,0E0,0E0,0E0,0E0,0E0,0E0,0E0,0E0,0E0,0E0,0E0,0E0],"parents":[2147483647,0,0,1,1,2,2,3,3,4,4,5,5,6,6,7,7,8,8,9,9,10,10,11,11,12,12,13,13,14,14,15,15,16,16,17,17,18,18,19,19,20,20,21,21,22,22,23,23,24,24,25,25,26,26,27,27,28,28,29,29,30,30,31,31,32,32,33,33,34,34,35,35,36,36,37,37,38,38,39,39,40,40,41,41,42,42,43,43,44,44,46,46,47,47,48,48,49,49,50,50,51,51,52,52,53,53,54,54,55,55,56,56,57,57,58,58,59,59,60,60,61,61,62,62],"right_children":[2,4,6,8,10,12,14,16,18,20,22,24,26,28,30,32,34,36,38,40,42,44,46,48,50,52,54,56,58,60,62,64,66,68,70,72,74,76,78,80,82,84,86,88,90,-1,92,94,96,98,100,102,104,106,108,110,112,114,116,118,120,122,124,-1,-1,-1,-1,-1,-1,-1,-1,-1,-1,-1,-1,-1,-1,-1,-1,-1,-1,-1,-1,-1,-1,-1,-1,-1,-1,-1,-1,-1,-1,-1,-1,-1,-1,-1,-1,-1,-1,-1,-1,-1,-1,-1,-1,-1,-1,-1,-1,-1,-1,-1,-1,-1,-1,-1,-1,-1,-1,-1,-1,-1,-1],"split_conditions":[2E1,2.8E0,2.8E0,1.2E1,1.024E3,8.41E2,9.61E2,2.88E2,7.84E2,1E0,1.444E3,2.7E1,2.7E1,3E0,3.2666667E0,4.133333E0,1.3E0,1.3E0,1.3E0,6.76E2,3.3E0,3.64E2,4E0,1.3E0,6.25E2,1.089E3,1.3E0,2.48E2,5.76E2,2.7E1,3.12E2,1.089E3,2.704E3,3.52E2,1E0,4E0,3.7333333E0,1.521E3,1.225E3,9E0,1.1E2,8E0,7E0,4.6E0,1.089E3,-1.3350335E-2,2.5E0,2.87E2,6.76E2,1.3E0,4E1,1.3E0,1.3E0,1.156E3,3.12E2,3.2E0,2.99E2,4E0,4E0,1.156E3,2.704E3,3.5333333E0,1.6E3,-8.074966E-2,-6.285115E-2,-2.6882684E-2,4.65855E-2,-6.992131E-2,-8.137407E-3,-2.436815E-2,5.6467224E-2,-1.5515779E-2,-7.1426265E-2,-5.2283444E-2,-6.4312518E-3,-4.734102E-2,-8.912489E-3,-2.4423398E-2,2.1876397E-3,-6.740668E-2,-3.290282E-2,-5.297165E-2,-7.3440964E-3,4.173341E-2,7.543459E-3,1.16381645E-2,6.439123E-2,1.6339218E-2,4.6800174E-2,2.3127483E-2,7.921E-2,4.1826963E-2,5.9677657E-2,-5.8461513E-2,-3.2527477E-2,-3.4585983E-2,-1.8142771E-2,-3.1720255E-2,-8.666505E-3,5.421097E-4,2.807251E-2,-2.454219E-2,-1.1399791E-3,-1.0759748E-3,2.4364399E-2,1.2160431E-3,3.623126E-2,3.1466123E-2,5.0852668E-2,-4.5400307E-2,-1.0588365E-2,-3.642976E-3,1.3677867E-2,3.9739585E-3,2.6671533E-2,3.3444863E-2,5.172959E-2,3.415458E-2,5.090828E-2,5.746882E-2,9.14263E-3,4.0642574E-2,6.2236883E-2,7.006829E-2,7.6034464E-2],"split_indices":[0,1,1,0,8,8,8,5,8,14,8,0,0,3,3,3,1,1,1,8,1,5,0,1,8,8,1,5,8,0,5,8,8,5,14,12,3,8,8,0,5,12,12,1,8,0,3,5,8,1,0,1,1,8,5,1,5,3,3,8,8,3,8,0,0,0,0,0,0,0,0,0,0,0,0,0,0,0,0,0,0,0,0,0,0,0,0,0,0,0,0,0,0,0,0,0,0,0,0,0,0,0,0,0,0,0,0,0,0,0,0,0,0,0,0,0,0,0,0,0,0,0,0,0,0],"split_type":[0,0,0,0,0,0,0,0,0,0,0,0,0,0,0,0,0,0,0,0,0,0,0,0,0,0,0,0,0,0,0,0,0,0,0,0,0,0,0,0,0,0,0,0,0,0,0,0,0,0,0,0,0,0,0,0,0,0,0,0,0,0,0,0,0,0,0,0,0,0,0,0,0,0,0,0,0,0,0,0,0,0,0,0,0,0,0,0,0,0,0,0,0,0,0,0,0,0,0,0,0,0,0,0,0,0,0,0,0,0,0,0,0,0,0,0,0,0,0,0,0,0,0,0,0],"sum_hessian":[1.1282941E4,4.0910405E3,7.1919014E3,3.3782349E3,7.128057E2,3.0868013E3,4.1051E3,1.8170618E3,1.561173E3,4.3695755E2,2.7584818E2,1.5462397E3,1.5405614E3,2.1287876E3,1.9763124E3,1.7360604E3,8.100133E1,7.630742E2,7.980988E2,4.0173306E2,3.522448E1,1.7512811E2,1.0072008E2,6.8244037E2,8.6379944E2,6.064265E2,9.341349E2,3.7638995E2,1.7523977E3,7.435952E2,1.2327172E3,1.7094207E3,2.6639793E1,3.53295E1,4.5671833E1,4.4190872E2,3.211655E2,3.5024237E2,4.478564E2,1.21559204E2,2.8017386E2,2.4483835E1,1.0740643E1,1.6488916E2,1.0238951E1,1.2478966E0,9.947218E1,2.74845E2,4.0759534E2,3.7831705E2,4.854824E2,2.938692E2,3.125573E2,1.9238997E2,7.4174493E2,3.6744137E1,3.396458E2,2.9935678E2,1.453041E3,3.0933557E2,4.3425967E2,4.4178104E2,7.909361E2,1.5165696E3,1.9285112E2,2.4891413E1,1.7483813E0,3.0596725E1,4.7327714E0,4.2176548E1,3.4952836E0,7.953363E0,4.3395535E2,3.08698E2,1.2467497E1,2.9752252E2,5.2719856E1,3.0913766E2,1.3871877E2,1.5443814E1,1.06115395E2,1.6983652E1,2.6319022E2,9.2466955E0,1.5237141E1,2.9989295E0,7.741713E0,1.4415868E2,2.0730482E1,2.9963949E0,7.242556E0,4.6633106E1,5.2839073E1,2.2393956E2,5.090545E1,2.1818027E2,1.8941508E2,1.5109369E2,2.2722334E2,3.5758475E2,1.2789765E2,9.142888E1,2.0244034E2,8.949424E1,2.2306306E2,1.1395996E2,7.8430016E1,2.6790732E2,4.7383762E2,2.6995794E1,9.748341E0,1.6571889E2,1.7392693E2,1.1619508E2,1.8316168E2,6.6690784E2,7.861331E2,1.3648242E2,1.7285313E2,4.3002716E2,4.232497E0,2.4676998E1,4.1710403E2,4.9206418E2,2.988719E2],"tree_param":{"num_deleted":"0","num_feature":"16","num_nodes":"125","size_leaf_vector":"1"}},{"base_weights":[-6.5813675E-3,-9.53298E-1,5.3116107E-1,-1.1758916E0,9.2322655E-2,6.829829E-2,8.803248E-1,-1.4564492E0,-8.475593E-1,-2.2807732E-1,6.303538E-1,-3.2850376E-1,4.707495E-1,4.4257367E-1,1.0900831E0,-1.5191636E0,-1.0254197E0,-1.1179928E0,-4.1566077E-1,-5.6280446E-1,9.884519E-3,1.0348805E0,4.2022282E-1,-6.665869E-1,3.2031685E-2,7.7969246E-2,7.1746445E-1,-1.6543746E-1,5.831213E-1,8.732341E-1,1.2544054E0,-1.5919784E0,-1.315995E0,-1.2629133E0,-6.0540086E-1,-1.3181567E0,-8.6166716E-1,-7.182447E-1,-2.2260256E-1,-6.476503E-1,3.8273942E-1,-4.6845925E-1,1.6234623E-1,8.583715E-1,6.0845364E-2,2.884289E-1,9.37262E-1,-9.790903E-1,-4.5976216E-1,-3.5541975E-1,2.0825596E-1,-1.4135064E-1,3.6707E-1,3.2719678E-1,8.190677E-1,2.2250691E-1,-2.7950388E-1,2.6957077E-1,7.024521E-1,7.231146E-1,1.0457367E0,1.0854726E0,1.3711679E0,-7.982656E-2,1.19507555E-2,-6.683812E-2,-1.5887007E-2,-1.7595707E-3,-6.504445E-2,-4.1979044E-3,-5.0155606E-2,-7.102257E-2,-5.9322096E-2,-5.4424144E-2,-3.3675622E-2,-4.0351823E-2,1.6208317E-2,-5.2350573E-4,-2.6216974E-2,-4.8987385E-2,-2.5251567E-2,-4.4977125E-2,3.5834294E-2,-4.0568005E-2,3.9016664E-5,2.916852E-2,6.0002564E-4,4.954224E-2,7.599566E-3,6.7286105E-3,3.0026143E-2,1.9132625E-2,5.1828343E-2,-5.8097042E-2,-3.511559E-2,-3.3789337E-2,-1.1386515E-2,-3.2100152E-2,-8.191234E-3,-3.5013177E-3,1.5846508E-2,-2.2184776E-2,-9.6613476E-5,-3.0004624E-3,2.6792288E-2,7.446649E-3,3.8652267E-2,3.0075941E-2,4.709394E-2,-9.977962E-4,2.8576428E-2,-3.922529E-2,-8.958826E-3,5.7625407E-3,2.4561556E-2,2.9468805E-2,4.9522143E-2,2.5717398E-2,4.3887556E-2,3.622753E-2,5.4659724E-2,3.7408013E-2,5.614316E-2,5.685049E-2,7.035273E-2],"categories":[],"categories_nodes":[],"categories_segments":[],"categories_sizes":[],"default_left":[0,0,0,0,0,0,0,0,0,0,0,0,0,0,0,0,0,0,0,0,0,0,0,0,0,0,0,0,0,0,0,0,0,0,0,0,0,0,0,0,0,0,0,0,0,0,0,0,0,0,0,0,0,0,0,0,0,0,0,0,0,0,0,0,0,0,0,0,0,0,0,0,0,0,0,0,0,0,0,0,0,0,0,0,0,0,0,0,0,0,0,0,0,0,0,0,0,0,0,0,0,0,0,0,0,0,0,0,0,0,0,0,0,0,0,0,0,0,0,0,0,0,0,0,0],"id":3,"left_children":[1,3,5,7,9,11,13,15,17,19,21,23,25,27,29,31,33,35,37,39,41,43,45,47,49,51,53,55,57,59,61,63,65,67,69,71,73,75,77,79,81,83,85,87,-1,89,91,93,95,97,99,101,103,105,107,109,111,113,115,117,119,121,123,-1,-1,-1,-1,-1,-1,-1,-1,-1,-1,-1,-1,-1,-1,-1,-1,-1,-1,-1,-1,-1,-1,-1,-1,-1,-1,-1,-1,-1,-1,-1,-1,-1,-1,-1,-1,-1,-1,-1,-1,-1,-1,-1,-1,-1,-1,-1,-1,-1,-1,-1,-1,-1,-1,-1,-1,-1,-1,-1,-1,-1,-1],"loss_changes":[5.7181245E3,9.471133E2,1.1576313E3,3.0778857E2,1.2341131E2,4.9220593E2,3.744314E2,4.73042E1,1.8035791E2,3.5762474E1,2.2274513E1,1.8920705E2,1.4822128E2,1.1327008E2,9.724048E1,2.1218262E1,2.2444855E1,4.767981E1,3.4755836E1,1.5213772E1,1.9283E1,1.8679199E0,1.1825602E1,5.1323273E1,5.1423325E1,3.755258E1,3.6993103E1,1.1100266E1,4.0067993E1,3.0137207E1,2.9434326E1,1.0013184E1,8.314636E0,6.8409576E0,1.774287E1,5.487549E0,1.7194366E1,2.1768631E1,2.3443348E1,7.6307755E0,7.4916267E0,1.0284072E1,1.2681556E1,4.473572E0,0E0,6.7807894E0,1.5646973E0,1.528421E1,2.4101517E1,1.2825024E1,1.5674595E1,1.4205806E1,1.8442364E1,1.5444605E1,1.9335785E1,4.854845E0,9.648299E0,1.0144524E1,2.4774872E1,2.0245605E1,7.635132E0,7.3012695E0,6.157837E0,0E0,0E0,0E0,0E0,0E0,0E0,0E0,0E0,0E0,0E0,0E0,0E0,0E0,0E0,0E0,0E0,0E0,0E0,0E0,0E0,0E0,0E0,0E0,0E0,0E0,0E0,0E0,0E0,0E0,0E0,0E0,0E0,0E0,0E0,0E0,0E0,0E0,0E0,0E0,0E0,0E0,0E0,0E0,0E0,0E0,0E0,0E0,0E0,0E0,0E0,0E0,0E0,0E0,0E0,0E0,0E0,0E0,0E0,0E0,0E0,0E0,0E0],"parents":[2147483647,0,0,1,1,2,2,3,3,4,4,5,5,6,6,7,7,8,8,9,9,10,10,11,11,12,12,13,13,14,14,15,15,16,16,17,17,18,18,19,19,20,20,21,21,22,22,23,23,24,24,25,25,26,26,27,27,28,28,29,29,30,30,31,31,32,32,33,33,34,34,35,35,36,36,37,37,38,38,39,39,40,40,41,41,42,42,43,43,45,45,46,46,47,47,48,48,49,49,50,50,51,51,52,52,53,53,54,54,55,55,56,56,57,57,58,58,59,59,60,60,61,61,62,62],"right_children":[2,4,6,8,10,12,14,16,18,20,22,24,26,28,30,32,34,36,38,40,42,44,46,48,50,52,54,56,58,60,62,64,66,68,70,72,74,76,78,80,82,84,86,88,-1,90,92,94,96,98,100,102,104,106,108,110,112,114,116,118,120,122,124,-1,-1,-1,-1,-1,-1,-1,-1,-1,-1,-1,-1,-1,-1,-1,-1,-1,-1,-1,-1,-1,-1,-1,-1,-1,-1,-1,-1,-1,-1,-1,-1,-1,-1,-1,-1,-1,-1,-1,-1,-1,-1,-1,-1,-1,-1,-1,-1,-1,-1,-1,-1,-1,-1,-1,-1,-1,-1,-1,-1,-1,-1],"split_conditions":[2E1,2.8E0,2.8E0,1.2E1,1.024E3,8.41E2,7.84E2,1.089E3,9E2,7.29E2,6E0,2.8E1,2.7E1,3E0,3.5E0,1.3E0,1.3E0,1.3E0,1.5E1,1E0,1.1E1,1.444E3,3.19E2,1.3E0,5.76E2,1.156E3,1.3E0,5E0,5.76E2,1.089E3,1.089E3,5.1E0,3.8E0,2E0,7E0,6.76E2,6.76E2,4E0,8E0,1.1E1,1.0333333E0,2.42E2,6E0,1.369E3,6.0845364E-2,1.8E1,1.156E3,6.76E2,6.76E2,1.3E0,1.3E0,1.3E0,1.3E0,3.9E1,3.12E2,6.76E2,5.29E2,4E1,4.766667E0,2.7E1,2.0333333E0,2.8E1,2.8E1,-7.982656E-2,1.19507555E-2,-6.683812E-2,-1.5887007E-2,-1.7595707E-3,-6.504445E-2,-4.1979044E-3,-5.0155606E-2,-7.102257E-2,-5.9322096E-2,-5.4424144E-2,-3.3675622E-2,-4.0351823E-2,1.6208317E-2,-5.2350573E-4,-2.6216974E-2,-4.8987385E-2,-2.5251567E-2,-4.4977125E-2,3.5834294E-2,-4.0568005E-2,3.9016664E-5,2.916852E-2,6.0002564E-4,4.954224E-2,7.599566E-3,6.7286105E-3,3.0026143E-2,1.9132625E-2,5.1828343E-2,-5.8097042E-2,-3.511559E-2,-3.3789337E-2,-1.1386515E-2,-3.2100152E-2,-8.191234E-3,-3.5013177E-3,1.5846508E-2,-2.2184776E-2,-9.6613476E-5,-3.0004624E-3,2.6792288E-2,7.446649E-3,3.8652267E-2,3.0075941E-2,4.709394E-2,-9.977962E-4,2.8576428E-2,-3.922529E-2,-8.958826E-3,5.7625407E-3,2.4561556E-2,2.9468805E-2,4.9522143E-2,2.5717398E-2,4.3887556E-2,3.622753E-2,5.4659724E-2,3.7408013E-2,5.614316E-2,5.685049E-2,7.035273E-2],"split_indices":[0,1,1,0,8,8,8,8,8,8,13,0,0,3,3,1,1,1,0,14,0,8,5,1,8,8,1,13,8,8,8,3,3,13,13,8,8,3,13,0,3,5,13,8,0,0,8,8,8,1,1,1,1,0,5,8,8,0,3,0,3,0,0,0,0,0,0,0,0,0,0,0,0,0,0,0,0,0,0,0,0,0,0,0,0,0,0,0,0,0,0,0,0,0,0,0,0,0,0,0,0,0,0,0,0,0,0,0,0,0,0,0,0,0,0,0,0,0,0,0,0,0,0,0,0],"split_type":[0,0,0,0,0,0,0,0,0,0,0,0,0,0,0,0,0,0,0,0,0,0,0,0,0,0,0,0,0,0,0,0,0,0,0,0,0,0,0,0,0,0,0,0,0,0,0,0,0,0,0,0,0,0,0,0,0,0,0,0,0,0,0,0,0,0,0,0,0,0,0,0,0,0,0,0,0,0,0,0,0,0,0,0,0,0,0,0,0,0,0,0,0,0,0,0,0,0,0,0,0,0,0,0,0,0,0,0,0,0,0,0,0,0,0,0,0,0,0,0,0,0,0,0,0],"sum_hessian":[1.1230062E4,4.0677886E3,7.1622734E3,3.353718E3,7.1407043E2,3.0802236E3,4.0820496E3,1.8065765E3,1.5471416E3,4.4791257E2,2.6615787E2,1.55109E3,1.5291338E3,1.3233724E3,2.758677E3,1.5749045E3,2.31672E2,9.5043665E2,5.967049E2,1.8554793E2,2.6236462E2,8.9648705E1,1.7650914E2,8.0003156E2,7.510584E2,5.90442E2,9.386918E2,2.4844E2,1.0749324E3,1.1919825E3,1.5666945E3,1.1543534E3,4.2055115E2,1.467101E2,8.496191E1,5.313581E2,4.1907858E2,2.3136371E2,3.6534116E2,1.7055838E2,1.4989538E1,6.291094E1,1.994537E2,4.841596E1,4.123275E1,1.4189722E2,3.4611927E1,3.1712903E2,4.8290253E2,2.3448862E2,5.165698E2,3.3603076E2,2.5441125E2,1.9477255E2,7.439192E2,5.623429E1,1.9220572E2,2.972212E2,7.777112E2,6.4011633E2,5.518663E2,6.4451013E2,9.221843E2,1.1516178E3,2.735541E0,4.116482E2,8.902944E0,4.459641E0,1.4225046E2,3.7286427E1,4.7675476E1,2.935735E2,2.3778459E2,1.8784778E2,2.3123082E2,2.1341129E2,1.7952423E1,2.1513081E2,1.5021036E2,4.9477398E1,1.2108099E2,2.7472026E0,1.2242335E1,3.592751E1,2.6983429E1,5.172479E1,1.4772891E2,4.043091E1,7.9850516E0,9.6001434E1,4.5895782E1,5.993278E0,2.8618649E1,1.8904233E2,1.280867E2,2.4908694E2,2.3381557E2,9.301226E1,1.4147635E2,1.4517511E2,3.713947E2,1.0536093E2,2.3066983E2,7.224445E1,1.821668E2,1.4009311E2,5.467944E1,2.7055423E2,4.73365E2,3.3738926E1,2.2495365E1,3.0725946E1,1.6147977E2,1.7612375E2,1.2109744E2,5.6063226E2,2.1707896E2,2.7422528E2,3.6589105E2,7.313939E1,4.7872687E2,6.641023E1,5.780999E2,1.26894E2,7.9529034E2],"tree_param":{"num_deleted":"0","num_feature":"16","num_nodes":"125","size_leaf_vector":"1"}},{"base_weights":[-3.3962035E-3,-6.4945424E-1,6.1440545E-1,-1.1735258E0,-8.144885E-2,-6.203715E-2,8.48813E-1,-1.4198458E0,-7.162985E-1,-5.6882703E-1,2.5506276E-1,-4.543005E-1,3.2611114E-1,4.5559934E-1,9.6774065E-1,-1.470792E0,-1.0330244E0,-1.1552056E0,-5.4548436E-1,-7.9732686E-1,7.3819156E-3,9.443895E-2,6.9943154E-1,-8.307814E-1,-2.2843117E-1,2.5701905E-2,5.051069E-1,1.4378399E-1,7.3628044E-1,7.5739354E-1,1.1354374E0,-1.6070662E0,-1.3764721E0,-7.6519144E-1,-1.1807137E0,-1.2479358E0,-8.004657E-1,-6.660912E-1,-1.3411216E-1,-9.775403E-1,-4.1113377E-1,-2.8435895E-1,2.1059565E-1,-8.8847674E-2,3.595485E-1,4.3588847E-1,8.8391894E-1,-1.2698419E0,-5.997943E-1,-7.734872E-1,-1.05812855E-1,-3.052227E-1,1.2656844E-1,2.28573E-1,6.232989E-1,-3.935743E-1,2.6920024E-1,4.838616E-1,9.6455365E-1,5.9644735E-1,9.288445E-1,9.6022856E-1,1.2331327E0,-8.0635905E-2,-5.578828E-2,-7.419973E-2,-6.23562E-2,-4.060625E-2,-6.3470947E-3,-6.5430366E-2,-4.003693E-2,-6.3634776E-2,-2.283918E-2,-1.7330987E-2,-4.975484E-2,-1.9341508E-2,-3.8099688E-2,-1.3795974E-2,1.1012436E-2,-5.943508E-2,-3.72302E-2,-2.940673E-2,2.6890838E-3,-4.451235E-2,-6.8580657E-3,4.324499E-3,2.392019E-2,-1.0719657E-2,3.0952548E-3,9.519031E-3,2.4608657E-2,1.882108E-2,5.1957645E-2,-8.2300574E-4,4.705901E-2,-6.9849804E-2,-4.2354148E-2,-3.5561904E-2,1.2441858E-2,-3.425421E-3,-4.414043E-2,2.8088156E-2,-1.008528E-2,-2.624679E-2,4.442484E-3,4.5648083E-2,3.7185196E-3,-1.5500103E-2,1.8387651E-2,2.2976622E-2,4.228183E-2,-4.8120778E-2,-1.196965E-2,2.3852056E-2,-6.3791447E-3,-6.528464E-3,2.7107004E-2,3.7496205E-2,5.9452236E-2,2.2578182E-2,3.6922034E-2,4.091562E-2,5.2495696E-2,3.6981184E-2,5.1615376E-2,5.1585417E-2,6.457153E-2],"categories":[],"categories_nodes":[],"categories_segments":[],"categories_sizes":[],"default_left":[0,0,0,0,0,0,0,0,0,0,0,0,0,0,0,0,0,0,0,0,0,0,0,0,0,0,0,0,0,0,0,0,0,0,0,0,0,0,0,0,0,0,0,0,0,0,0,0,0,0,0,0,0,0,0,0,0,0,0,0,0,0,0,0,0,0,0,0,0,0,0,0,0,0,0,0,0,0,0,0,0,0,0,0,0,0,0,0,0,0,0,0,0,0,0,0,0,0,0,0,0,0,0,0,0,0,0,0,0,0,0,0,0,0,0,0,0,0,0,0,0,0,0,0,0,0,0],"id":4,"left_children":[1,3,5,7,9,11,13,15,17,19,21,23,25,27,29,31,33,35,37,39,41,43,45,47,49,51,53,55,57,59,61,63,65,67,69,71,73,75,77,79,81,83,85,87,89,91,93,95,97,99,101,103,105,107,109,111,113,115,117,119,121,123,125,-1,-1,-1,-1,-1,-1,-1,-1,-1,-1,-1,-1,-1,-1,-1,-1,-1,-1,-1,-1,-1,-1,-1,-1,-1,-1,-1,-1,-1,-1,-1,-1,-1,-1,-1,-1,-1,-1,-1,-1,-1,-1,-1,-1,-1,-1,-1,-1,-1,-1,-1,-1,-1,-1,-1,-1,-1,-1,-1,-1,-1,-1,-1,-1],"loss_changes":[4.476143E3,1.6317397E3,9.09042E2,3.200923E2,4.3177753E2,2.2491414E2,1.9865332E2,3.4976562E1,7.43595E1,1.415755E2,1.1110482E2,6.22809E1,3.991761E1,8.6586395E1,1.14413086E2,1.8790527E1,7.754593E0,8.189484E0,3.5728058E1,5.3182983E1,1.8219584E1,5.5676903E1,1.9712662E1,2.7137985E1,3.0698196E1,9.32858E0,1.50646515E1,3.1813545E1,2.9556427E1,3.9529907E1,2.9905518E1,4.0039062E-2,1.1676758E1,2.3124504E0,5.718796E0,3.721283E0,5.0145493E0,1.4649429E1,8.348181E0,2.490039E1,2.0332176E1,1.113187E1,5.978468E0,1.2842886E1,1.041296E1,5.785881E0,1.250148E1,3.8664093E0,1.7404472E1,6.445751E0,2.4255222E1,5.701166E0,8.71673E0,1.06753845E1,1.1458954E1,7.6135263E0,3.1567606E1,9.002937E0,1.2243027E1,1.5138153E1,8.529053E0,9.647156E0,1.2319214E1,0E0,0E0,0E0,0E0,0E0,0E0,0E0,0E0,0E0,0E0,0E0,0E0,0E0,0E0,0E0,0E0,0E0,0E0,0E0,0E0,0E0,0E0,0E0,0E0,0E0,0E0,0E0,0E0,0E0,0E0,0E0,0E0,0E0,0E0,0E0,0E0,0E0,0E0,0E0,0E0,0E0,0E0,0E0,0E0,0E0,0E0,0E0,0E0,0E0,0E0,0E0,0E0,0E0,0E0,0E0,0E0,0E0,0E0,0E0,0E0,0E0,0E0,0E0,0E0],"parents":[2147483647,0,0,1,1,2,2,3,3,4,4,5,5,6,6,7,7,8,8,9,9,10,10,11,11,12,12,13,13,14,14,15,15,16,16,17,17,18,18,19,19,20,20,21,21,22,22,23,23,24,24,25,25,26,26,27,27,28,28,29,29,30,30,31,31,32,32,33,33,34,34,35,35,36,36,37,37,38,38,39,39,40,40,41,41,42,42,43,43,44,44,45,45,46,46,47,47,48,48,49,49,50,50,51,51,52,52,53,53,54,54,55,55,56,56,57,57,58,58,59,59,60,60,61,61,62,62],"right_children":[2,4,6,8,10,12,14,16,18,20,22,24,26,28,30,32,34,36,38,40,42,44,46,48,50,52,54,56,58,60,62,64,66,68,70,72,74,76,78,80,82,84,86,88,90,92,94,96,98,100,102,104,106,108,110,112,114,116,118,120,122,124,126,-1,-1,-1,-1,-1,-1,-1,-1,-1,-1,-1,-1,-1,-1,-1,-1,-1,-1,-1,-1,-1,-1,-1,-1,-1,-1,-1,-1,-1,-1,-1,-1,-1,-1,-1,-1,-1,-1,-1,-1,-1,-1,-1,-1,-1,-1,-1,-1,-1,-1,-1,-1,-1,-1,-1,-1,-1,-1,-1,-1,-1,-1,-1,-1],"split_conditions":[2.4E1,2.8333333E0,3E0,2.3E2,2.1E2,2.87E2,2.45E2,2E0,1.3666667E0,2E0,3.15E2,2.17E2,3E1,4E0,3.2E1,1.9666667E0,7E0,3.1E2,3.15E2,3.9333334E0,4E0,4E0,3.1666667E0,2E0,1.9E0,2.6E1,3.22E2,1.56E2,3E0,3.9666667E0,3.3333333E0,2E1,1.56E2,1E0,2.08E2,3E0,6E0,6E0,2E0,1.45E2,9E2,1.3E2,5.733333E0,2.64E2,2E0,3E0,7.29E2,2E2,3.4E1,5E0,5E0,3E0,3E0,2E0,3E0,9.2E1,8E0,1.3E2,2.9E1,3E0,4.8333335E0,9E0,3.04E2,-8.0635905E-2,-5.578828E-2,-7.419973E-2,-6.23562E-2,-4.060625E-2,-6.3470947E-3,-6.5430366E-2,-4.003693E-2,-6.3634776E-2,-2.283918E-2,-1.7330987E-2,-4.975484E-2,-1.9341508E-2,-3.8099688E-2,-1.3795974E-2,1.1012436E-2,-5.943508E-2,-3.72302E-2,-2.940673E-2,2.6890838E-3,-4.451235E-2,-6.8580657E-3,4.324499E-3,2.392019E-2,-1.0719657E-2,3.0952548E-3,9.519031E-3,2.4608657E-2,1.882108E-2,5.1957645E-2,-8.2300574E-4,4.705901E-2,-6.9849804E-2,-4.2354148E-2,-3.5561904E-2,1.2441858E-2,-3.425421E-3,-4.414043E-2,2.8088156E-2,-1.008528E-2,-2.624679E-2,4.442484E-3,4.5648083E-2,3.7185196E-3,-1.5500103E-2,1.8387651E-2,2.2976622E-2,4.228183E-2,-4.8120778E-2,-1.196965E-2,2.3852056E-2,-6.3791447E-3,-6.528464E-3,2.7107004E-2,3.7496205E-2,5.9452236E-2,2.2578182E-2,3.6922034E-2,4.091562E-2,5.2495696E-2,3.6981184E-2,5.1615376E-2,5.1585417E-2,6.457153E-2],"split_indices":[4,3,3,5,5,5,5,7,3,7,5,5,4,3,4,3,13,5,5,3,3,3,3,7,3,4,5,5,7,3,3,4,5,14,5,7,13,13,7,5,8,5,3,5,7,7,8,5,4,13,13,7,13,7,7,5,13,5,4,7,3,12,5,0,0,0,0,0,0,0,0,0,0,0,0,0,0,0,0,0,0,0,0,0,0,0,0,0,0,0,0,0,0,0,0,0,0,0,0,0,0,0,0,0,0,0,0,0,0,0,0,0,0,0,0,0,0,0,0,0,0,0,0,0,0,0,0],"split_type":[0,0,0,0,0,0,0,0,0,0,0,0,0,0,0,0,0,0,0,0,0,0,0,0,0,0,0,0,0,0,0,0,0,0,0,0,0,0,0,0,0,0,0,0,0,0,0,0,0,0,0,0,0,0,0,0,0,0,0,0,0,0,0,0,0,0,0,0,0,0,0,0,0,0,0,0,0,0,0,0,0,0,0,0,0,0,0,0,0,0,0,0,0,0,0,0,0,0,0,0,0,0,0,0,0,0,0,0,0,0,0,0,0,0,0,0,0,0,0,0,0,0,0,0,0,0,0],"sum_hessian":[1.1212589E4,5.4809277E3,5.7316606E3,2.8501575E3,2.6307705E3,1.4752338E3,4.256427E3,1.850916E3,9.992414E2,1.0742366E3,1.5565339E3,7.336427E2,7.4159106E2,9.895345E2,3.2668923E3,1.6330356E3,2.178804E2,2.7832413E2,7.2091724E2,7.689286E2,3.0530795E2,1.1441693E3,4.123647E2,2.7409717E2,4.5954556E2,2.7731537E2,4.6427573E2,4.694848E2,5.200497E2,1.4516097E3,1.8152825E3,6.614003E2,9.716353E2,7.963828E1,1.3824211E2,2.1865033E2,5.9673782E1,5.569968E2,1.6392046E2,5.232347E2,2.4569391E2,1.25186485E2,1.8012148E2,6.768712E2,4.6729807E2,1.711858E2,2.411789E2,9.293971E1,1.8115744E2,8.3420654E1,3.761249E2,6.430768E1,2.1300769E2,1.3989566E2,3.2438007E2,8.843559E1,3.8104922E2,2.4844504E2,2.7160464E2,7.510526E2,7.0055707E2,6.5371893E2,1.1615636E3,6.5162146E2,9.778858E0,5.2486304E2,4.4677222E2,7.3929474E1,5.7088146E0,1.01600914E2,3.6641197E1,2.1142499E2,7.2253423E0,1.8744879E1,4.0928905E1,1.4367099E2,4.133258E2,1.1722929E2,4.6691177E1,2.7229282E2,2.509419E2,1.7775476E2,6.793914E1,2.3482199E1,1.01704285E2,1.239872E2,5.613428E1,3.690815E2,3.0778973E2,2.0642737E2,2.6087067E2,1.5730356E2,1.3882248E1,1.4463687E1,2.267152E2,6.967805E1,2.326167E1,1.6027213E2,2.0885313E1,1.1417764E1,7.200289E1,4.6631622E1,3.294933E2,4.107464E1,2.323304E1,1.2232207E1,2.0077548E2,2.8476149E1,1.114195E2,1.8855997E2,1.358201E2,1.7740635E1,7.0694954E1,2.4992993E2,1.3111928E2,2.1415932E1,2.270291E2,1.4107112E2,1.3053354E2,3.738118E2,3.772408E2,3.702713E2,3.302858E2,1.6376395E2,4.89955E2,2.6492422E2,8.9663934E2],"tree_param":{"num_deleted":"0","num_feature":"16","num_nodes":"127","size_leaf_vector":"1"}},{"base_weights":[3.4671745E-3,-8.636378E-1,4.9576095E-1,-1.136785E0,-1.019319E-1,7.801826E-2,8.504829E-1,-1.3734355E0,-8.661219E-1,-5.253013E-1,2.2902176E-1,-3.416563E-1,3.3647224E-1,4.887219E-1,9.810645E-1,-1.3913355E0,-1.8345898E-1,-1.0516552E0,-4.5374647E-1,-9.5499104E-1,-3.298766E-1,-7.0896804E-2,5.942443E-1,-4.2598882E-1,2.9088962E-1,1.3615215E-1,5.901646E-1,2.359731E-1,7.164844E-1,8.1207454E-1,1.1567191E0,-1.4657891E0,-1.1786104E0,-8.3023304E-1,1.981629E-1,-1.2084451E0,-8.334486E-1,-7.6120746E-1,-2.3734686E-1,-1.0799266E0,9.6768945E-2,-5.7317084E-1,-5.3394314E-2,-5.198861E-1,7.47062E-2,9.6062684E-1,4.092624E-1,-5.4905784E-1,-4.866215E-2,-1.08729884E-1,4.514065E-1,-1.0703989E-1,5.347122E-1,3.1754145E-1,7.1468645E-1,5.8708735E-2,4.817376E-1,4.5602793E-1,8.4909904E-1,4.7759962E-1,8.970892E-1,9.1738355E-1,1.2162552E0,-7.3902585E-2,-2.4523307E-2,-6.0028452E-2,1.8901832E-2,-5.0849345E-2,4.597892E-3,4.2995587E-2,-1.0382597E-2,-6.366383E-2,-5.042714E-2,-4.3894734E-2,1.0970873E-2,-3.9740782E-2,5.7395477E-2,-1.8381272E-2,1.6346095E-2,-5.668763E-2,3.9413877E-2,2.8367622E-2,-1.55223785E-2,-1.1911579E-2,-3.7436668E-2,-8.61835E-3,1.6862964E-2,-3.3107813E-2,1.4706462E-2,2.0298949E-2,-1.9933025E-3,5.7438433E-2,3.851633E-2,9.222431E-3,3.4996253E-2,-3.4855865E-2,-1.2093808E-2,1.153199E-2,-1.1283024E-2,1.772569E-2,-1.5240121E-2,5.1369067E-2,1.5548755E-2,-2.5055552E-2,1.2978909E-3,1.48696145E-2,3.596894E-2,-7.330627E-3,1.9660728E-2,2.37323E-2,4.3841295E-2,-3.1981375E-3,1.0241464E-2,1.4315875E-2,3.238983E-2,1.2203456E-2,3.5117473E-2,5.1016707E-2,3.6008127E-2,1.3297713E-2,3.3777937E-2,3.603263E-2,4.9466938E-2,3.9520536E-2,5.637889E-2,5.3558525E-2,6.3239425E-2],"categories":[],"categories_nodes":[],"categories_segments":[],"categories_sizes":[],"default_left":[0,0,0,0,0,0,0,0,0,0,0,0,0,0,0,0,0,0,0,0,0,0,0,0,0,0,0,0,0,0,0,0,0,0,0,0,0,0,0,0,0,0,0,0,0,0,0,0,0,0,0,0,0,0,0,0,0,0,0,0,0,0,0,0,0,0,0,0,0,0,0,0,0,0,0,0,0,0,0,0,0,0,0,0,0,0,0,0,0,0,0,0,0,0,0,0,0,0,0,0,0,0,0,0,0,0,0,0,0,0,0,0,0,0,0,0,0,0,0,0,0,0,0,0,0,0,0],"id":5,"left_children":[1,3,5,7,9,11,13,15,17,19,21,23,25,27,29,31,33,35,37,39,41,43,45,47,49,51,53,55,57,59,61,63,65,67,69,71,73,75,77,79,81,83,85,87,89,91,93,95,97,99,101,103,105,107,109,111,113,115,117,119,121,123,125,-1,-1,-1,-1,-1,-1,-1,-1,-1,-1,-1,-1,-1,-1,-1,-1,-1,-1,-1,-1,-1,-1,-1,-1,-1,-1,-1,-1,-1,-1,-1,-1,-1,-1,-1,-1,-1,-1,-1,-1,-1,-1,-1,-1,-1,-1,-1,-1,-1,-1,-1,-1,-1,-1,-1,-1,-1,-1,-1,-1,-1,-1,-1,-1],"loss_changes":[4.7626455E3,8.4053174E2,1.0544993E3,1.8929565E2,1.4970312E2,3.547065E2,1.81323E2,3.350464E1,1.05867676E2,3.904187E1,6.575078E1,6.661505E1,1.0276225E2,5.8705612E1,8.2971436E1,2.3000244E1,6.246154E0,3.176477E1,2.8633247E1,1.9288635E1,2.174326E1,2.1630598E1,1.7946297E1,5.106491E1,9.492956E0,1.0978664E2,3.007434E1,2.1155834E1,1.817685E1,4.0634766E1,1.8600952E1,1.3058105E1,1.44644165E1,1.7014036E0,4.5568404E0,5.9107056E0,1.9085327E1,1.23615265E1,1.8911835E1,1.40242E1,3.3224614E0,9.94035E0,7.151297E0,9.575855E0,9.515308E0,2.3388977E0,1.1734549E1,3.755974E1,1.348338E1,4.013347E0,8.191992E0,3.6905632E1,1.8594513E1,9.950832E0,2.3399963E1,5.0972815E0,6.422325E0,9.408527E0,7.1024323E0,1.2171692E1,1.800946E1,6.573944E0,6.4260254E0,0E0,0E0,0E0,0E0,0E0,0E0,0E0,0E0,0E0,0E0,0E0,0E0,0E0,0E0,0E0,0E0,0E0,0E0,0E0,0E0,0E0,0E0,0E0,0E0,0E0,0E0,0E0,0E0,0E0,0E0,0E0,0E0,0E0,0E0,0E0,0E0,0E0,0E0,0E0,0E0,0E0,0E0,0E0,0E0,0E0,0E0,0E0,0E0,0E0,0E0,0E0,0E0,0E0,0E0,0E0,0E0,0E0,0E0,0E0,0E0,0E0,0E0,0E0,0E0],"parents":[2147483647,0,0,1,1,2,2,3,3,4,4,5,5,6,6,7,7,8,8,9,9,10,10,11,11,12,12,13,13,14,14,15,15,16,16,17,17,18,18,19,19,20,20,21,21,22,22,23,23,24,24,25,25,26,26,27,27,28,28,29,29,30,30,31,31,32,32,33,33,34,34,35,35,36,36,37,37,38,38,39,39,40,40,41,41,42,42,43,43,44,44,45,45,46,46,47,47,48,48,49,49,50,50,51,51,52,52,53,53,54,54,55,55,56,56,57,57,58,58,59,59,60,60,61,61,62,62],"right_children":[2,4,6,8,10,12,14,16,18,20,22,24,26,28,30,32,34,36,38,40,42,44,46,48,50,52,54,56,58,60,62,64,66,68,70,72,74,76,78,80,82,84,86,88,90,92,94,96,98,100,102,104,106,108,110,112,114,116,118,120,122,124,126,-1,-1,-1,-1,-1,-1,-1,-1,-1,-1,-1,-1,-1,-1,-1,-1,-1,-1,-1,-1,-1,-1,-1,-1,-1,-1,-1,-1,-1,-1,-1,-1,-1,-1,-1,-1,-1,-1,-1,-1,-1,-1,-1,-1,-1,-1,-1,-1,-1,-1,-1,-1,-1,-1,-1,-1,-1,-1,-1,-1,-1,-1,-1,-1],"split_conditions":[2E1,2.5E1,2.7E1,1.1E1,1.7E0,2.7E1,2.7E1,4E0,9E2,1.1E1,3.2E1,1.156E3,1.8E0,3.2E1,3.3E1,8.41E2,3.1E1,1.3E0,1.5E1,4E1,3.2E1,1.1E1,6E0,2.8E0,1E0,8.41E2,5.76E2,3E0,1E0,1.7E0,1.7E0,3E0,1.5E0,5E0,4.266667E0,3E0,3.7333333E0,2.8E0,1.521E3,3.22E2,6E0,7E0,4E1,2.72E2,6E0,4E0,3.6E1,7.84E2,6E0,1.296E3,4E0,5.29E2,3.12E2,1.4E1,4E0,1E0,2.9E1,3.7E1,6E0,3.5E1,3.2E0,4E1,3.2666667E0,-7.3902585E-2,-2.4523307E-2,-6.0028452E-2,1.8901832E-2,-5.0849345E-2,4.597892E-3,4.2995587E-2,-1.0382597E-2,-6.366383E-2,-5.042714E-2,-4.3894734E-2,1.0970873E-2,-3.9740782E-2,5.7395477E-2,-1.8381272E-2,1.6346095E-2,-5.668763E-2,3.9413877E-2,2.8367622E-2,-1.55223785E-2,-1.1911579E-2,-3.7436668E-2,-8.61835E-3,1.6862964E-2,-3.3107813E-2,1.4706462E-2,2.0298949E-2,-1.9933025E-3,5.7438433E-2,3.851633E-2,9.222431E-3,3.4996253E-2,-3.4855865E-2,-1.2093808E-2,1.153199E-2,-1.1283024E-2,1.772569E-2,-1.5240121E-2,5.1369067E-2,1.5548755E-2,-2.5055552E-2,1.2978909E-3,1.48696145E-2,3.596894E-2,-7.330627E-3,1.9660728E-2,2.37323E-2,4.3841295E-2,-3.1981375E-3,1.0241464E-2,1.4315875E-2,3.238983E-2,1.2203456E-2,3.5117473E-2,5.1016707E-2,3.6008127E-2,1.3297713E-2,3.3777937E-2,3.603263E-2,4.9466938E-2,3.9520536E-2,5.637889E-2,5.3558525E-2,6.3239425E-2],"split_indices":[0,4,4,0,1,0,0,2,8,0,4,8,1,4,4,8,5,1,0,4,4,0,13,1,7,8,8,7,11,1,1,7,1,0,3,2,3,1,8,5,13,13,4,5,13,13,4,8,13,8,13,8,5,4,3,11,4,4,13,0,3,4,3,0,0,0,0,0,0,0,0,0,0,0,0,0,0,0,0,0,0,0,0,0,0,0,0,0,0,0,0,0,0,0,0,0,0,0,0,0,0,0,0,0,0,0,0,0,0,0,0,0,0,0,0,0,0,0,0,0,0,0,0,0,0,0,0],"split_type":[0,0,0,0,0,0,0,0,0,0,0,0,0,0,0,0,0,0,0,0,0,0,0,0,0,0,0,0,0,0,0,0,0,0,0,0,0,0,0,0,0,0,0,0,0,0,0,0,0,0,0,0,0,0,0,0,0,0,0,0,0,0,0,0,0,0,0,0,0,0,0,0,0,0,0,0,0,0,0,0,0,0,0,0,0,0,0,0,0,0,0,0,0,0,0,0,0,0,0,0,0,0,0,0,0,0,0,0,0,0,0,0,0,0,0,0,0,0,0,0,0,0,0,0,0,0,0],"sum_hessian":[1.1155121E4,4.0394517E3,7.1156694E3,2.9728848E3,1.0665669E3,3.2681326E3,3.847537E3,1.5839266E3,1.388958E3,4.676907E2,5.988762E2,1.2454551E3,2.0226774E3,1.0217214E3,2.8258157E3,1.560287E3,2.3639633E1,9.5689014E2,4.3206793E2,1.4499545E2,3.2269525E2,3.2927963E2,2.695966E2,1.0992297E3,1.462254E2,1.1310872E3,8.915903E2,4.8526132E2,5.364601E2,1.4430963E3,1.3827194E3,1.1514056E3,4.088814E2,8.33608E0,1.5303554E1,5.541637E2,4.027264E2,1.7744135E2,2.5462659E2,1.2957663E2,1.541882E1,1.7107896E2,1.516163E2,8.0004105E1,2.4927553E2,8.904245E1,1.8055414E2,8.2853827E2,2.7069147E2,4.1995903E1,1.042295E2,7.029158E2,4.2817136E2,2.8066458E2,6.1092566E2,2.8263907E2,2.0262225E2,1.8248883E2,3.5397125E2,2.9380203E2,1.1492943E3,2.7871036E2,1.104009E3,1.1365999E3,1.4805697E1,4.0341937E2,5.462038E0,6.846744E0,1.4893357E0,5.392009E0,9.911546E0,4.14398E2,1.3976572E2,3.8657364E2,1.615278E1,1.7494528E2,2.4960723E0,2.0714856E2,4.7478035E1,1.26329994E2,3.2466333E0,6.970452E0,8.448368E0,5.964494E1,1.1143403E2,1.16649666E2,3.4966625E1,6.826039E1,1.17437105E1,6.3404655E1,1.8587088E2,4.2242474E1,4.6799976E1,1.0273109E2,7.782305E1,5.5821375E2,2.7032452E2,1.0488334E2,1.6580812E2,1.2248753E1,2.9747149E1,1.9193224E1,8.503628E1,1.7667155E2,5.2624426E2,1.8851547E2,2.396559E2,3.921222E1,2.4145236E2,2.4787892E2,3.6304672E2,1.5395372E2,1.2868535E2,9.433362E1,1.0828864E2,9.915616E1,8.333268E1,1.4907611E2,2.0489513E2,1.4312515E2,1.5067688E2,3.976192E2,7.5167505E2,1.7671927E2,1.019911E2,2.8252014E2,8.214889E2],"tree_param":{"num_deleted":"0","num_feature":"16","num_nodes":"127","size_leaf_vector":"1"}},{"base_weights":[-4.257005E-3,-8.372653E-1,4.6687588E-1,-1.0329163E0,8.1757635E-2,4.8897877E-2,7.6811105E-1,-1.3082465E0,-7.485578E-1,-5.5754054E-1,3.0369097E-1,-2.924491E-1,3.9021552E-1,4.0697727E-1,9.4792604E-1,-1.3596544E0,-8.5494775E-1,-9.03639E-1,-2.1581118E-1,-8.586054E-1,-3.7415153E-1,7.54696E-1,1.1246473E-1,-5.820481E-1,2.7259303E-2,5.219311E-2,6.1001354E-1,-1.3214009E-1,5.373693E-1,7.8581077E-1,1.1126109E0,-1.3728396E0,-2.8108788E-1,-1.1507753E0,-6.0916483E-1,-1.1043991E0,-6.734476E-1,2.317864E-2,-6.008013E-1,-8.995361E-1,-2.8555733E-1,-4.4718897E-1,8.6325073E-1,5.2822447E-1,1.0294836E0,-4.9998693E-2,5.6258416E-1,-8.865165E-1,-3.731539E-1,-3.1417996E-1,1.8757609E-1,-1.1730429E-1,3.5530573E-1,3.4413135E-1,7.7571076E-1,-3.8059342E-1,3.5868768E-2,4.2812094E-1,7.584456E-1,6.098998E-1,9.1814077E-1,9.4292545E-1,1.1976027E0,-7.0579976E-2,-5.2368026E-2,-4.9900573E-2,1.7111164E-2,-5.938034E-2,1.4414923E-2,-9.184867E-3,-4.6820175E-2,-5.9494503E-2,-4.5363177E-2,-4.636737E-2,-2.6898636E-2,-1.1878785E-2,1.0631972E-2,-3.3938836E-2,1.4737936E-2,-4.100864E-2,-6.0141332E-2,-2.3628203E-2,1.1785662E-2,-2.5036592E-2,5.424276E-2,1.952511E-5,5.5503923E-2,-2.2376994E-2,3.2094434E-2,3.5165623E-2,6.0142893E-2,-1.0910881E-2,1.9336572E-2,2.2880636E-2,6.886505E-2,-6.246659E-2,-4.0213335E-2,-2.5843142E-2,-1.0922488E-2,-2.8690794E-2,-6.5318025E-3,-1.4531706E-3,1.3659504E-2,-1.7377984E-2,-2.8743583E-5,-4.6148477E-3,2.2347776E-2,5.340598E-3,2.3617592E-2,3.0734235E-2,4.9380463E-2,-2.3502843E-2,5.425076E-3,-3.8542417E-3,1.8866148E-2,1.1579356E-2,2.811714E-2,2.8851254E-2,4.7637593E-2,2.0136729E-2,3.730355E-2,3.7251513E-2,5.1413473E-2,2.3228584E-2,4.907154E-2,5.2503955E-2,6.191961E-2],"categories":[],"categories_nodes":[],"categories_segments":[],"categories_sizes":[],"default_left":[0,0,0,0,0,0,0,0,0,0,0,0,0,0,0,0,0,0,0,0,0,0,0,0,0,0,0,0,0,0,0,0,0,0,0,0,0,0,0,0,0,0,0,0,0,0,0,0,0,0,0,0,0,0,0,0,0,0,0,0,0,0,0,0,0,0,0,0,0,0,0,0,0,0,0,0,0,0,0,0,0,0,0,0,0,0,0,0,0,0,0,0,0,0,0,0,0,0,0,0,0,0,0,0,0,0,0,0,0,0,0,0,0,0,0,0,0,0,0,0,0,0,0,0,0,0,0],"id":6,"left_children":[1,3,5,7,9,11,13,15,17,19,21,23,25,27,29,31,33,35,37,39,41,43,45,47,49,51,53,55,57,59,61,63,65,67,69,71,73,75,77,79,81,83,85,87,89,91,93,95,97,99,101,103,105,107,109,111,113,115,117,119,121,123,125,-1,-1,-1,-1,-1,-1,-1,-1,-1,-1,-1,-1,-1,-1,-1,-1,-1,-1,-1,-1,-1,-1,-1,-1,-1,-1,-1,-1,-1,-1,-1,-1,-1,-1,-1,-1,-1,-1,-1,-1,-1,-1,-1,-1,-1,-1,-1,-1,-1,-1,-1,-1,-1,-1,-1,-1,-1,-1,-1,-1,-1,-1,-1,-1],"loss_changes":[4.3404424E3,7.1848755E2,8.894203E2,2.5693066E2,9.98001E1,3.4496057E2,2.6620752E2,3.780786E1,1.3388403E2,9.689098E0,4.4926163E1,1.370855E2,1.0995853E2,9.612521E1,7.227759E1,2.0949707E1,1.188002E1,5.733008E1,3.3800644E1,1.334835E0,1.0729307E1,9.115974E0,2.691583E1,4.9077637E1,3.86274E1,3.0067524E1,3.925113E1,1.1155604E1,2.6254608E1,3.1661072E1,1.8438599E1,1.7216797E1,9.000269E0,4.4446945E0,1.3282383E1,1.0206543E1,1.9725739E1,1.1291097E1,1.0024178E1,5.268173E-1,6.952078E-1,9.462044E0,1.4307604E0,9.952623E0,3.060295E0,2.0000067E1,7.7161903E0,8.406647E0,1.0168701E1,1.0671154E1,8.912447E0,1.0094411E1,8.6497345E0,1.0483639E1,1.8221466E1,4.766493E0,6.205997E0,1.9359238E1,1.2234787E1,1.654683E1,1.4255859E1,7.970886E0,4.1171875E0,0E0,0E0,0E0,0E0,0E0,0E0,0E0,0E0,0E0,0E0,0E0,0E0,0E0,0E0,0E0,0E0,0E0,0E0,0E0,0E0,0E0,0E0,0E0,0E0,0E0,0E0,0E0,0E0,0E0,0E0,0E0,0E0,0E0,0E0,0E0,0E0,0E0,0E0,0E0,0E0,0E0,0E0,0E0,0E0,0E0,0E0,0E0,0E0,0E0,0E0,0E0,0E0,0E0,0E0,0E0,0E0,0E0,0E0,0E0,0E0,0E0,0E0,0E0,0E0],"parents":[2147483647,0,0,1,1,2,2,3,3,4,4,5,5,6,6,7,7,8,8,9,9,10,10,11,11,12,12,13,13,14,14,15,15,16,16,17,17,18,18,19,19,20,20,21,21,22,22,23,23,24,24,25,25,26,26,27,27,28,28,29,29,30,30,31,31,32,32,33,33,34,34,35,35,36,36,37,37,38,38,39,39,40,40,41,41,42,42,43,43,44,44,45,45,46,46,47,47,48,48,49,49,50,50,51,51,52,52,53,53,54,54,55,55,56,56,57,57,58,58,59,59,60,60,61,61,62,62],"right_children":[2,4,6,8,10,12,14,16,18,20,22,24,26,28,30,32,34,36,38,40,42,44,46,48,50,52,54,56,58,60,62,64,66,68,70,72,74,76,78,80,82,84,86,88,90,92,94,96,98,100,102,104,106,108,110,112,114,116,118,120,122,124,126,-1,-1,-1,-1,-1,-1,-1,-1,-1,-1,-1,-1,-1,-1,-1,-1,-1,-1,-1,-1,-1,-1,-1,-1,-1,-1,-1,-1,-1,-1,-1,-1,-1,-1,-1,-1,-1,-1,-1,-1,-1,-1,-1,-1,-1,-1,-1,-1,-1,-1,-1,-1,-1,-1,-1,-1,-1,-1,-1,-1,-1,-1,-1,-1],"split_conditions":[2E1,2.8E0,1.8E0,1.1E1,7.29E2,8.41E2,7.84E2,1.156E3,1.089E3,1.2666667E0,6E0,2.8E1,2.7E1,3E0,4E0,4E0,7E0,1.3E0,8E0,3.15E2,4E0,1.156E3,2.88E2,1.3E0,5.76E2,1.225E3,3.12E2,6.25E2,3.5E0,1.024E3,1.024E3,2.28E2,3.1E1,4.8333335E0,7E0,7.84E2,6.76E2,1.3E0,3.33E2,3.1E0,3.2E0,2.42E2,2E0,9E0,2.1333334E0,1.156E3,1E0,4.84E2,6.76E2,1.3E0,1.3E0,1.3E0,1E0,3.7E0,4E0,4.6E0,3.3E0,6.25E2,1E0,2.7E1,2.7E1,1E0,2.88E2,-7.0579976E-2,-5.2368026E-2,-4.9900573E-2,1.7111164E-2,-5.938034E-2,1.4414923E-2,-9.184867E-3,-4.6820175E-2,-5.9494503E-2,-4.5363177E-2,-4.636737E-2,-2.6898636E-2,-1.1878785E-2,1.0631972E-2,-3.3938836E-2,1.4737936E-2,-4.100864E-2,-6.0141332E-2,-2.3628203E-2,1.1785662E-2,-2.5036592E-2,5.424276E-2,1.952511E-5,5.5503923E-2,-2.2376994E-2,3.2094434E-2,3.5165623E-2,6.0142893E-2,-1.0910881E-2,1.9336572E-2,2.2880636E-2,6.886505E-2,-6.246659E-2,-4.0213335E-2,-2.5843142E-2,-1.0922488E-2,-2.8690794E-2,-6.5318025E-3,-1.4531706E-3,1.3659504E-2,-1.7377984E-2,-2.8743583E-5,-4.6148477E-3,2.2347776E-2,5.340598E-3,2.3617592E-2,3.0734235E-2,4.9380463E-2,-2.3502843E-2,5.425076E-3,-3.8542417E-3,1.8866148E-2,1.1579356E-2,2.811714E-2,2.8851254E-2,4.7637593E-2,2.0136729E-2,3.730355E-2,3.7251513E-2,5.1413473E-2,2.3228584E-2,4.907154E-2,5.2503955E-2,6.191961E-2],"split_indices":[0,1,1,0,8,8,8,8,8,3,13,0,0,2,2,2,0,1,13,5,7,8,5,1,8,8,5,8,1,8,8,5,5,3,13,8,8,1,5,1,1,5,2,0,3,8,14,8,8,1,1,1,7,3,2,1,1,8,14,0,0,6,5,0,0,0,0,0,0,0,0,0,0,0,0,0,0,0,0,0,0,0,0,0,0,0,0,0,0,0,0,0,0,0,0,0,0,0,0,0,0,0,0,0,0,0,0,0,0,0,0,0,0,0,0,0,0,0,0,0,0,0,0,0,0,0,0],"split_type":[0,0,0,0,0,0,0,0,0,0,0,0,0,0,0,0,0,0,0,0,0,0,0,0,0,0,0,0,0,0,0,0,0,0,0,0,0,0,0,0,0,0,0,0,0,0,0,0,0,0,0,0,0,0,0,0,0,0,0,0,0,0,0,0,0,0,0,0,0,0,0,0,0,0,0,0,0,0,0,0,0,0,0,0,0,0,0,0,0,0,0,0,0,0,0,0,0,0,0,0,0,0,0,0,0,0,0,0,0,0,0,0,0,0,0,0,0,0,0,0,0,0,0,0,0,0,0],"sum_hessian":[1.1057648E4,3.9943955E3,7.0632534E3,3.2931848E3,7.012109E2,2.9588591E3,4.1043945E3,1.6713243E3,1.6218605E3,1.8030745E2,5.2090344E2,1.4794375E3,1.4794215E3,1.365413E3,2.7389812E3,1.4992924E3,1.7203194E2,1.2556483E3,3.662122E2,6.686125E1,1.1344619E2,1.5422314E2,3.6668027E2,7.758419E2,7.0359564E2,5.834242E2,8.959973E2,2.6592197E2,1.0994911E3,1.3831671E3,1.3558142E3,1.4809159E3,1.8376541E1,7.6397194E1,9.563474E1,6.6867206E2,5.869762E2,2.2652953E2,1.3968266E2,6.1872208E1,4.989042E0,1.0772627E2,5.7199183E0,8.61463E1,6.807685E1,2.7008597E2,9.65943E1,3.143807E2,4.614612E2,2.2450018E2,4.7909543E2,3.7457742E2,2.0884676E2,3.4518347E2,5.508138E2,1.0676758E2,1.5915437E2,7.378213E2,3.616697E2,5.9621136E2,7.869558E2,4.565034E2,8.993108E2,1.3203444E3,1.6057149E2,8.266912E0,1.0109629E1,7.4661064E1,1.7361288E0,4.2255955E1,5.3378788E1,4.6289468E2,2.0577739E2,2.0219263E2,3.8478357E2,9.5221924E1,1.3130762E2,1.2871744E2,1.0965215E1,5.197575E1,9.896461E0,3.7405508E0,1.2484909E0,1.0473895E2,2.987323E0,1.4950622E0,4.224856E0,8.681501E0,7.74648E1,2.5382006E1,4.2694843E1,1.9534404E2,7.474193E1,8.6952644E1,9.641651E0,5.5476532E1,2.5890417E2,2.3801836E2,2.2344286E2,9.209663E1,1.3240356E2,1.3589197E2,3.4320346E2,1.25346634E2,2.492308E2,3.5493793E1,1.7335297E2,1.2172303E2,2.2346045E2,3.1519293E2,2.3562088E2,9.029083E1,1.6476742E1,1.2017465E2,3.8979725E1,3.0051666E2,4.3730466E2,1.8908958E2,1.7258014E2,2.380339E2,3.5817743E2,3.0900214E2,4.7795364E2,3.4982224E1,4.2152115E2,2.0058783E2,6.9872296E2],"tree_param":{"num_deleted":"0","num_feature":"16","num_nodes":"127","size_leaf_vector":"1"}},{"base_weights":[-7.067011E-3,-7.2084975E-1,4.9366897E-1,-1.0566763E0,-1.3420402E-1,1.0975977E-1,7.697172E-1,-1.3013922E0,-7.855213E-1,-4.1248932E-1,3.348761E-1,-4.351645E-1,3.1585777E-1,5.518431E-1,1.0064445E0,-1.3786691E0,-1.0940948E0,-1.0084952E0,-4.4082934E-1,-7.343808E-1,-1.6432843E-1,-8.3016045E-2,6.0204834E-1,-7.1859694E-1,-2.0710213E-1,4.9599547E-2,5.291388E-1,3.7330773E-2,6.347154E-1,8.627278E-1,1.1312106E0,-1.3852819E0,2.1228324E-1,-1.1687102E0,-8.1670666E-1,-1.1106211E0,-8.076934E-1,1.2456971E-1,-5.5500686E-1,-9.5419306E-1,-4.652661E-1,-6.2392807E-1,-3.9395172E-2,-6.413001E-1,8.1464835E-2,9.2817557E-1,4.262285E-1,-9.9442846E-1,-5.06356E-1,-4.3267044E-1,-6.936127E-2,-9.766725E-2,3.9495456E-1,3.1771654E-1,7.7011406E-1,-5.467501E-1,1.3068232E-1,4.8422438E-1,7.808275E-1,7.6812136E-1,9.610524E-1,9.4592136E-1,1.1784866E0,-7.016238E-2,-5.3370483E-2,4.836618E-2,-1.5721083E-2,-1.8738452E-2,-5.9670188E-2,-4.735392E-2,-1.5421159E-3,-7.048559E-2,-5.2666422E-2,-4.5315E-2,-1.3420405E-2,-7.6649874E-3,3.5942532E-2,-4.777947E-2,-2.2174506E-2,-5.4407217E-2,-3.0575117E-2,2.3373807E-2,-2.5813047E-2,-1.0541537E-2,-3.9989963E-2,6.1270758E-3,-1.3538587E-2,9.1854294E-5,-4.3590084E-2,-8.2065084E-4,2.240385E-2,4.7462117E-2,-2.1487616E-2,-2.861062E-2,2.331761E-2,-5.070479E-2,2.0118913E-2,-4.8089977E-2,-2.2151252E-2,-7.044714E-2,-1.9991567E-2,-9.620234E-3,7.035415E-3,-1.82348E-2,1.9985535E-3,5.0347317E-2,1.612728E-2,5.1832567E-3,2.4135029E-2,3.525423E-2,5.4615643E-2,-3.5860434E-2,1.3669066E-2,2.7365386E-2,6.079085E-4,9.5842425E-3,2.8492594E-2,2.371171E-2,4.2494237E-2,3.266033E-2,4.2216577E-2,5.6039926E-2,4.411779E-2,4.00656E-2,5.537172E-2,5.686292E-2,6.521518E-2],"categories":[],"categories_nodes":[],"categories_segments":[],"categories_sizes":[],"default_left":[0,0,0,0,0,0,0,0,0,0,0,0,0,0,0,0,0,0,0,0,0,0,0,0,0,0,0,0,0,0,0,0,0,0,0,0,0,0,0,0,0,0,0,0,0,0,0,0,0,0,0,0,0,0,0,0,0,0,0,0,0,0,0,0,0,0,0,0,0,0,0,0,0,0,0,0,0,0,0,0,0,0,0,0,0,0,0,0,0,0,0,0,0,0,0,0,0,0,0,0,0,0,0,0,0,0,0,0,0,0,0,0,0,0,0,0,0,0,0,0,0,0,0,0,0,0,0],"id":7,"left_children":[1,3,5,7,9,11,13,15,17,19,21,23,25,27,29,31,33,35,37,39,41,43,45,47,49,51,53,55,57,59,61,63,65,67,69,71,73,75,77,79,81,83,85,87,89,91,93,95,97,99,101,103,105,107,109,111,113,115,117,119,121,123,125,-1,-1,-1,-1,-1,-1,-1,-1,-1,-1,-1,-1,-1,-1,-1,-1,-1,-1,-1,-1,-1,-1,-1,-1,-1,-1,-1,-1,-1,-1,-1,-1,-1,-1,-1,-1,-1,-1,-1,-1,-1,-1,-1,-1,-1,-1,-1,-1,-1,-1,-1,-1,-1,-1,-1,-1,-1,-1,-1,-1,-1,-1,-1,-1],"loss_changes":[3.935452E3,8.942234E2,6.857124E2,1.9053735E2,2.1602377E2,3.0425977E2,1.9359131E2,2.2774902E1,1.0500159E2,8.283205E1,6.886583E1,4.791388E1,1.1158424E2,8.364978E1,3.135083E1,1.187085E1,7.6657104E0,1.617096E1,3.4972855E1,2.6281128E1,3.371918E1,2.2206049E1,2.1169937E1,1.888121E1,1.2814945E1,4.4552536E1,5.5347107E1,1.4972766E1,3.6784546E1,7.0942383E0,7.310547E0,4.7609863E0,2.460372E0,5.9416504E0,9.356068E0,7.923279E0,1.4872757E1,1.5245735E1,1.967923E1,1.0705811E1,9.995232E0,8.951885E0,1.7386127E1,8.15736E0,6.726128E0,4.1523438E0,1.0130367E1,4.335144E0,5.030216E0,4.4555874E0,6.6924577E0,2.259553E1,1.1278572E1,2.0535862E1,9.899567E0,5.487912E0,1.1668825E1,2.0812057E1,1.77182E1,3.250183E0,4.151642E0,3.797638E0,2.4707031E0,0E0,0E0,0E0,0E0,0E0,0E0,0E0,0E0,0E0,0E0,0E0,0E0,0E0,0E0,0E0,0E0,0E0,0E0,0E0,0E0,0E0,0E0,0E0,0E0,0E0,0E0,0E0,0E0,0E0,0E0,0E0,0E0,0E0,0E0,0E0,0E0,0E0,0E0,0E0,0E0,0E0,0E0,0E0,0E0,0E0,0E0,0E0,0E0,0E0,0E0,0E0,0E0,0E0,0E0,0E0,0E0,0E0,0E0,0E0,0E0,0E0,0E0,0E0,0E0],"parents":[2147483647,0,0,1,1,2,2,3,3,4,4,5,5,6,6,7,7,8,8,9,9,10,10,11,11,12,12,13,13,14,14,15,15,16,16,17,17,18,18,19,19,20,20,21,21,22,22,23,23,24,24,25,25,26,26,27,27,28,28,29,29,30,30,31,31,32,32,33,33,34,34,35,35,36,36,37,37,38,38,39,39,40,40,41,41,42,42,43,43,44,44,45,45,46,46,47,47,48,48,49,49,50,50,51,51,52,52,53,53,54,54,55,55,56,56,57,57,58,58,59,59,60,60,61,61,62,62],"right_children":[2,4,6,8,10,12,14,16,18,20,22,24,26,28,30,32,34,36,38,40,42,44,46,48,50,52,54,56,58,60,62,64,66,68,70,72,74,76,78,80,82,84,86,88,90,92,94,96,98,100,102,104,106,108,110,112,114,116,118,120,122,124,126,-1,-1,-1,-1,-1,-1,-1,-1,-1,-1,-1,-1,-1,-1,-1,-1,-1,-1,-1,-1,-1,-1,-1,-1,-1,-1,-1,-1,-1,-1,-1,-1,-1,-1,-1,-1,-1,-1,-1,-1,-1,-1,-1,-1,-1,-1,-1,-1,-1,-1,-1,-1,-1,-1,-1,-1,-1,-1,-1,-1,-1,-1,-1,-1],"split_conditions":[2.1E1,1.5E0,2.8E0,1.2E1,1.024E3,6.76E2,9.61E2,8.41E2,8.41E2,2.8E0,1.7E0,2.8E1,2.8E1,3E0,4E0,4.9E0,1.3E0,1.3E0,5E0,1.5E1,6.25E2,1.1E1,6E0,1.3E0,1.3E0,1.156E3,1.024E3,5.29E2,4E0,2.8E1,1.089E3,2E0,1E0,2E0,2.7E0,4.84E2,3E0,1.369E3,1.4E1,3E0,3E0,6E0,8E0,6E0,2E1,6.7E0,8E0,5.266667E0,4.41E2,2.89E2,4E1,1.3E0,3E0,3.5E1,1.849E3,4.6E0,5E0,6.25E2,5.76E2,1.156E3,5E0,4.4E1,1.849E3,-7.016238E-2,-5.3370483E-2,4.836618E-2,-1.5721083E-2,-1.8738452E-2,-5.9670188E-2,-4.735392E-2,-1.5421159E-3,-7.048559E-2,-5.2666422E-2,-4.5315E-2,-1.3420405E-2,-7.6649874E-3,3.5942532E-2,-4.777947E-2,-2.2174506E-2,-5.4407217E-2,-3.0575117E-2,2.3373807E-2,-2.5813047E-2,-1.0541537E-2,-3.9989963E-2,6.1270758E-3,-1.3538587E-2,9.1854294E-5,-4.3590084E-2,-8.2065084E-4,2.240385E-2,4.7462117E-2,-2.1487616E-2,-2.861062E-2,2.331761E-2,-5.070479E-2,2.0118913E-2,-4.8089977E-2,-2.2151252E-2,-7.044714E-2,-1.9991567E-2,-9.620234E-3,7.035415E-3,-1.82348E-2,1.9985535E-3,5.0347317E-2,1.612728E-2,5.1832567E-3,2.4135029E-2,3.525423E-2,5.4615643E-2,-3.5860434E-2,1.3669066E-2,2.7365386E-2,6.079085E-4,9.5842425E-3,2.8492594E-2,2.371171E-2,4.2494237E-2,3.266033E-2,4.2216577E-2,5.6039926E-2,4.411779E-2,4.00656E-2,5.537172E-2,5.686292E-2,6.521518E-2],"split_indices":[0,1,1,0,8,8,8,8,8,1,1,0,0,2,2,3,1,1,13,0,8,0,13,1,1,8,8,8,2,0,8,7,7,13,3,8,2,8,0,15,13,13,13,13,0,3,0,3,8,8,0,1,13,0,8,1,13,8,8,8,13,0,8,0,0,0,0,0,0,0,0,0,0,0,0,0,0,0,0,0,0,0,0,0,0,0,0,0,0,0,0,0,0,0,0,0,0,0,0,0,0,0,0,0,0,0,0,0,0,0,0,0,0,0,0,0,0,0,0,0,0,0,0,0,0,0,0],"split_type":[0,0,0,0,0,0,0,0,0,0,0,0,0,0,0,0,0,0,0,0,0,0,0,0,0,0,0,0,0,0,0,0,0,0,0,0,0,0,0,0,0,0,0,0,0,0,0,0,0,0,0,0,0,0,0,0,0,0,0,0,0,0,0,0,0,0,0,0,0,0,0,0,0,0,0,0,0,0,0,0,0,0,0,0,0,0,0,0,0,0,0,0,0,0,0,0,0,0,0,0,0,0,0,0,0,0,0,0,0,0,0,0,0,0,0,0,0,0,0,0,0,0,0,0,0,0,0],"sum_hessian":[1.1008826E4,4.5386665E3,6.47016E3,2.885853E3,1.6528134E3,2.7069353E3,3.7632246E3,1.5148811E3,1.370972E3,1.0374557E3,6.153577E2,7.425411E2,1.9643943E3,1.9613809E3,1.8018438E3,1.0993947E3,4.1548636E2,8.312975E2,5.3967456E2,4.5078265E2,5.8667303E2,2.4025577E2,3.7510196E2,3.3012094E2,4.1242017E2,8.7423694E2,1.0901573E3,2.72294E2,1.6890869E3,8.410091E2,9.6083466E2,1.0949728E3,4.4219613E0,3.2488202E2,9.060435E1,5.480391E2,2.8325833E2,9.0656906E1,4.4901767E2,2.4671811E2,2.0406454E2,1.2453701E2,4.6213602E2,5.4015713E1,1.8624007E2,1.2989021E2,2.4521173E2,1.4195229E2,1.8816866E2,1.5554845E2,2.568717E2,6.13391E2,2.6084592E2,5.819211E2,5.0823627E2,3.6853367E1,2.3544063E2,8.342003E2,8.5488654E2,4.3309958E2,4.0790952E2,1.995896E2,7.6124506E2,1.0331658E3,6.180698E1,1.4733427E0,2.9486187E0,1.0287762E1,3.1459427E2,7.7536255E1,1.3068089E1,8.430881E1,4.6373035E2,2.3889636E2,4.4361973E1,6.2279E1,2.8377909E1,9.613159E1,3.5288608E2,1.7581865E2,7.089947E1,1.0154894E1,1.9390965E2,3.784442E1,8.669259E1,2.7214005E2,1.8999597E2,1.451329E1,3.9502422E1,1.4774928E2,3.8490772E1,1.2820226E2,1.6879578E0,8.961125E0,2.3625061E2,1.4025151E2,1.7007786E0,2.1239344E1,1.6692932E2,3.6982715E0,1.5185019E2,1.620429E2,9.482881E1,2.0806995E2,4.0532108E2,2.6231773E1,2.3461414E2,2.5400356E2,3.2791754E2,4.255381E2,8.269817E1,3.061562E1,6.2377462E0,5.1343807E1,1.8409683E2,1.8961942E2,6.4458093E2,1.5860323E2,6.962833E2,1.7651283E2,2.5658676E2,1.3025778E2,2.7765173E2,1.0845057E2,9.113904E1,5.809246E2,1.8032042E2],"tree_param":{"num_deleted":"0","num_feature":"16","num_nodes":"127","size_leaf_vector":"1"}},{"base_weights":[5.8947387E-3,-6.8864286E-1,4.8813716E-1,-9.547999E-1,-3.3986731E-3,1.5198785E-1,8.466203E-1,-1.2492396E0,-6.91554E-1,-3.287434E-1,2.4249828E-1,-1.5353172E-1,3.4479088E-1,6.69036E-1,1.0098357E0,-1.2790972E0,-7.527742E-1,-8.0613315E-1,-2.3633337E-1,-8.7395656E-1,-1.5364777E-1,4.0989272E-2,6.2556225E-1,-4.5236662E-1,3.6280468E-2,-2.456573E-2,4.6113405E-1,4.5587194E-1,7.7172506E-1,8.143713E-1,1.075812E0,-1.3298632E0,-1.0633937E0,-8.692441E-1,-1.6708498E-1,-9.4695187E-1,-5.811633E-1,2.1874613E-1,-4.1962835E-1,-9.6648574E-1,8.491423E-1,6.763866E-2,-5.0525117E-1,4.4219002E-1,-9.7328186E-2,9.335087E-1,4.3126386E-1,-7.2868645E-1,-1.4204077E-1,3.8804504E-1,-2.5691167E-2,-3.4871155E-1,2.2620739E-1,2.5794175E-1,5.8955824E-1,2.6589347E-2,5.44978E-1,6.686862E-1,9.303524E-1,4.019462E-1,8.9022416E-1,9.6068114E-1,1.1569725E0,-6.7533545E-2,-4.748724E-2,-2.9837782E-2,-5.7610214E-2,-4.8583426E-2,-6.3602678E-3,3.3584132E-3,-5.712652E-2,-5.074016E-2,-3.7014052E-2,-3.3603422E-2,-1.03773065E-2,4.334162E-4,3.427967E-2,-3.6968727E-2,-1.23395035E-2,4.175973E-3,-5.2287113E-2,5.8160525E-2,9.1477495E-4,-1.0679984E-2,1.6171945E-2,-3.1044384E-2,3.8715843E-3,5.6394194E-3,3.9158065E-2,-2.6199251E-2,-3.5808663E-4,2.7599497E-2,5.4585565E-2,-2.237651E-2,2.4691362E-2,-4.6437453E-2,-2.0220889E-2,-2.0151187E-2,2.286325E-3,1.2650344E-2,3.702777E-2,-6.337033E-3,9.0485765E-3,-2.6107758E-2,-6.89312E-4,-6.4139264E-3,1.830989E-2,6.3921325E-3,2.51221E-2,1.934743E-2,3.5772774E-2,1.00682285E-2,-1.3403554E-2,1.7508112E-2,3.3074144E-2,2.723918E-2,3.9210256E-2,3.386148E-2,4.991617E-2,-2.9467285E-2,2.1898761E-2,4.628861E-2,2.209202E-2,9.68974E-3,4.8839144E-2,5.2420296E-2,6.2375404E-2],"categories":[],"categories_nodes":[],"categories_segments":[],"categories_sizes":[],"default_left":[0,0,0,0,0,0,0,0,0,0,0,0,0,0,0,0,0,0,0,0,0,0,0,0,0,0,0,0,0,0,0,0,0,0,0,0,0,0,0,0,0,0,0,0,0,0,0,0,0,0,0,0,0,0,0,0,0,0,0,0,0,0,0,0,0,0,0,0,0,0,0,0,0,0,0,0,0,0,0,0,0,0,0,0,0,0,0,0,0,0,0,0,0,0,0,0,0,0,0,0,0,0,0,0,0,0,0,0,0,0,0,0,0,0,0,0,0,0,0,0,0,0,0,0,0,0,0],"id":8,"left_children":[1,3,5,7,9,11,13,15,17,19,21,23,25,27,29,31,33,35,37,39,41,43,45,47,49,51,53,55,57,59,61,63,65,67,69,71,73,75,77,79,81,83,85,87,89,91,93,95,97,99,101,103,105,107,109,111,113,115,117,119,121,123,125,-1,-1,-1,-1,-1,-1,-1,-1,-1,-1,-1,-1,-1,-1,-1,-1,-1,-1,-1,-1,-1,-1,-1,-1,-1,-1,-1,-1,-1,-1,-1,-1,-1,-1,-1,-1,-1,-1,-1,-1,-1,-1,-1,-1,-1,-1,-1,-1,-1,-1,-1,-1,-1,-1,-1,-1,-1,-1,-1,-1,-1,-1,-1,-1],"loss_changes":[3.660202E3,8.167627E2,7.770929E2,2.491438E2,1.0038718E2,1.9619438E2,8.9784424E1,2.158789E1,8.875018E1,5.1430435E1,5.51409E1,7.313174E1,8.7751236E1,3.2431335E1,2.0071167E1,1.4283691E1,5.907593E0,4.2594177E1,2.881167E1,2.1720894E1,3.193878E1,2.6090933E1,1.4333649E1,4.2837914E1,1.7214539E1,3.991226E1,4.036679E1,1.8704231E1,1.5874634E1,1.2594299E1,1.0206909E1,7.8640137E0,1.08377075E1,5.4835243E0,3.7227514E0,1.0972107E1,1.7755249E1,9.7541275E0,1.3400906E1,1.0479378E1,1.8608661E0,1.8237719E1,1.0728294E1,1.3447931E1,1.3455833E1,5.096321E0,8.62569E0,1.6794067E1,1.163814E1,5.4428425E0,1.4055279E1,1.24323635E1,1.3787686E1,1.9120205E1,2.3972198E1,4.4400277E0,8.964943E0,8.381287E0,6.1179504E0,2.6203508E0,5.1518555E0,6.0679016E0,5.6272583E0,0E0,0E0,0E0,0E0,0E0,0E0,0E0,0E0,0E0,0E0,0E0,0E0,0E0,0E0,0E0,0E0,0E0,0E0,0E0,0E0,0E0,0E0,0E0,0E0,0E0,0E0,0E0,0E0,0E0,0E0,0E0,0E0,0E0,0E0,0E0,0E0,0E0,0E0,0E0,0E0,0E0,0E0,0E0,0E0,0E0,0E0,0E0,0E0,0E0,0E0,0E0,0E0,0E0,0E0,0E0,0E0,0E0,0E0,0E0,0E0,0E0,0E0,0E0,0E0],"parents":[2147483647,0,0,1,1,2,2,3,3,4,4,5,5,6,6,7,7,8,8,9,9,10,10,11,11,12,12,13,13,14,14,15,15,16,16,17,17,18,18,19,19,20,20,21,21,22,22,23,23,24,24,25,25,26,26,27,27,28,28,29,29,30,30,31,31,32,32,33,33,34,34,35,35,36,36,37,37,38,38,39,39,40,40,41,41,42,42,43,43,44,44,45,45,46,46,47,47,48,48,49,49,50,50,51,51,52,52,53,53,54,54,55,55,56,56,57,57,58,58,59,59,60,60,61,61,62,62],"right_children":[2,4,6,8,10,12,14,16,18,20,22,24,26,28,30,32,34,36,38,40,42,44,46,48,50,52,54,56,58,60,62,64,66,68,70,72,74,76,78,80,82,84,86,88,90,92,94,96,98,100,102,104,106,108,110,112,114,116,118,120,122,124,126,-1,-1,-1,-1,-1,-1,-1,-1,-1,-1,-1,-1,-1,-1,-1,-1,-1,-1,-1,-1,-1,-1,-1,-1,-1,-1,-1,-1,-1,-1,-1,-1,-1,-1,-1,-1,-1,-1,-1,-1,-1,-1,-1,-1,-1,-1,-1,-1,-1,-1,-1,-1,-1,-1,-1,-1,-1,-1,-1,-1,-1,-1,-1,-1],"split_conditions":[2.1E1,2.6E1,2.8E1,1.1E1,1E0,2.8E1,4E0,3.1666667E0,1.024E3,1.1E1,3.4E1,6.76E2,5.76E2,1E0,1E0,1E0,1E0,1E0,6E0,3.22E2,8E0,6E0,6E0,2E1,4E0,1E0,1E0,2.72E2,3.4E1,2.5E2,3.1E2,2.45E2,6E0,4.8333335E0,8E0,7.84E2,2.8E0,3.9666667E0,1.5E1,3E0,8E0,3.2E1,3.7E1,3E1,1.1E1,2.1E0,9E0,1E0,1E0,3.15E2,9.61E2,2.1E1,1.4E1,4E1,3.5333333E0,8E0,3.2E1,2.8E1,3.15E2,2.2E1,1.3E1,2.2E1,4.766667E0,-6.7533545E-2,-4.748724E-2,-2.9837782E-2,-5.7610214E-2,-4.8583426E-2,-6.3602678E-3,3.3584132E-3,-5.712652E-2,-5.074016E-2,-3.7014052E-2,-3.3603422E-2,-1.03773065E-2,4.334162E-4,3.427967E-2,-3.6968727E-2,-1.23395035E-2,4.175973E-3,-5.2287113E-2,5.8160525E-2,9.1477495E-4,-1.0679984E-2,1.6171945E-2,-3.1044384E-2,3.8715843E-3,5.6394194E-3,3.9158065E-2,-2.6199251E-2,-3.5808663E-4,2.7599497E-2,5.4585565E-2,-2.237651E-2,2.4691362E-2,-4.6437453E-2,-2.0220889E-2,-2.0151187E-2,2.286325E-3,1.2650344E-2,3.702777E-2,-6.337033E-3,9.0485765E-3,-2.6107758E-2,-6.89312E-4,-6.4139264E-3,1.830989E-2,6.3921325E-3,2.51221E-2,1.934743E-2,3.5772774E-2,1.00682285E-2,-1.3403554E-2,1.7508112E-2,3.3074144E-2,2.723918E-2,3.9210256E-2,3.386148E-2,4.991617E-2,-2.9467285E-2,2.1898761E-2,4.628861E-2,2.209202E-2,9.68974E-3,4.8839144E-2,5.2420296E-2,6.2375404E-2],"split_indices":[0,4,4,0,11,0,3,3,8,0,4,8,8,11,11,11,11,11,13,5,13,13,13,4,13,11,11,5,4,5,5,5,13,3,13,8,3,3,0,13,13,4,4,4,0,3,0,11,11,5,8,4,4,0,3,13,4,0,5,0,12,0,3,0,0,0,0,0,0,0,0,0,0,0,0,0,0,0,0,0,0,0,0,0,0,0,0,0,0,0,0,0,0,0,0,0,0,0,0,0,0,0,0,0,0,0,0,0,0,0,0,0,0,0,0,0,0,0,0,0,0,0,0,0,0,0,0],"split_type":[0,0,0,0,0,0,0,0,0,0,0,0,0,0,0,0,0,0,0,0,0,0,0,0,0,0,0,0,0,0,0,0,0,0,0,0,0,0,0,0,0,0,0,0,0,0,0,0,0,0,0,0,0,0,0,0,0,0,0,0,0,0,0,0,0,0,0,0,0,0,0,0,0,0,0,0,0,0,0,0,0,0,0,0,0,0,0,0,0,0,0,0,0,0,0,0,0,0,0,0,0,0,0,0,0,0,0,0,0,0,0,0,0,0,0,0,0,0,0,0,0,0,0,0,0,0,0],"sum_hessian":[1.0926076E4,4.477312E3,6.448764E3,3.2244885E3,1.2528232E3,3.3287876E3,3.1199768E3,1.520296E3,1.7041925E3,5.391458E2,7.1367737E2,1.2880002E3,2.0407874E3,1.4966573E3,1.6233195E3,1.4325646E3,8.773143E1,1.3608864E3,3.4330618E2,1.3008757E2,4.0905826E2,4.6839E2,2.4528738E2,4.9977905E2,7.882212E2,4.8903345E2,1.5517539E3,4.883566E2,1.0083008E3,4.1302234E2,1.2102971E3,1.1554608E3,2.771038E2,7.277524E1,1.4956193E1,8.350081E2,5.2587823E2,9.8517166E1,2.44789E2,1.2387468E2,6.2128816E0,2.5154967E2,1.5750859E2,1.19518936E2,3.4887106E2,9.342002E1,1.5186736E2,2.6366168E2,2.3611736E2,1.17275894E2,6.709453E2,2.1314049E2,2.7589297E2,6.0210846E2,9.496454E2,8.416706E1,4.0418954E2,6.14414E2,3.9388675E2,6.514064E1,3.478817E2,5.057289E2,7.045682E2,1.0930729E3,6.238804E1,4.554028E1,2.315635E2,6.367645E1,9.098787E0,1.2810817E1,2.145377E0,6.2568243E2,2.0932564E2,4.2232358E2,1.0355468E2,6.864568E1,2.987148E1,8.474156E1,1.6004744E2,8.690296E0,1.1518439E2,4.2182946E0,1.9945867E0,1.1989579E2,1.3165388E2,1.3137163E2,2.6136963E1,6.14677E1,5.805124E1,6.0025642E1,2.8884543E2,2.8699034E1,6.4720985E1,9.684274E0,1.4218309E2,1.6190671E2,1.0175498E2,9.831718E1,1.3780019E2,8.603551E1,3.1240383E1,4.5087354E2,2.2007176E2,1.4005363E2,7.308686E1,7.813131E1,1.9776166E2,3.9398898E2,2.0811949E2,3.655039E2,5.841415E2,5.302963E1,3.113743E1,1.5275795E2,2.514316E2,2.9920746E2,3.1520654E2,8.5701004E1,3.0818573E2,1.7459373E0,6.3394703E1,3.21341E2,2.6540691E1,1.0668102E1,4.9506082E2,3.2610077E2,3.7846738E2],"tree_param":{"num_deleted":"0","num_feature":"16","num_nodes":"127","size_leaf_vector":"1"}},{"base_weights":[2.796298E-4,-6.62793E-1,4.3624747E-1,-1.044275E0,-1.4600734E-1,-9.922638E-2,6.413326E-1,-1.2352223E0,-6.6195315E-1,-4.897098E-1,1.9201002E-1,-5.0441116E-1,1.8118152E-1,4.476632E-1,8.7660354E-1,-1.3857878E0,-1.1426136E0,-7.6659995E-1,-3.1710058E-1,-7.1962225E-1,-2.4401397E-2,5.2958667E-2,5.106003E-1,-7.627795E-1,-3.0843148E-1,-1.0467258E-1,3.737897E-1,1.404877E-2,6.081636E-1,7.2496593E-1,1.0274442E0,-4.8749197E-2,-6.958428E-2,-1.2103893E0,-9.470117E-1,-1.0186195E0,-6.5686715E-1,-6.956819E-1,-2.0814629E-1,-8.604808E-1,-3.32322E-1,-3.1953588E-1,2.0087336E-1,-6.8939336E-2,3.3458656E-1,4.2889085E-1,1.0243059E0,-1.0048301E0,-4.2136112E-1,-6.242776E-1,-1.583913E-1,-5.062506E-1,-7.374922E-3,1.551588E-1,5.3123593E-1,-3.991432E-1,1.6901323E-1,4.3698657E-1,7.6328367E-1,5.268443E-1,8.16142E-1,8.5019875E-1,1.1295656E0,-6.414086E-2,-5.5285294E-2,-5.914724E-2,-4.2789005E-2,-5.2857716E-2,1.6085837E-2,-1.6652515E-2,-3.720382E-2,-3.883155E-2,1.626374E-2,-1.4753081E-2,9.581346E-3,-4.594221E-2,-1.0521611E-2,-2.771248E-2,3.054916E-3,-2.1614363E-2,8.62852E-3,-2.0921992E-3,3.339928E-2,-7.2499523E-3,1.1326646E-2,4.9526608E-3,2.7871698E-2,1.3166693E-2,3.280366E-2,3.51326E-2,5.8023334E-2,-2.7641997E-2,-5.3261854E-2,-4.1639023E-2,-1.5669925E-2,2.7193828E-2,-3.3962782E-2,-1.2393187E-2,1.6294224E-2,-3.583432E-2,-1.0048425E-2,3.4262486E-2,-2.5353793E-3,-8.914228E-3,1.6575132E-2,1.6347742E-2,3.62377E-2,-2.8331025E-2,-4.373307E-3,5.0622076E-3,3.4394573E-2,7.4242502E-3,2.6387298E-2,2.2352114E-2,4.241826E-2,3.4930963E-2,1.750259E-2,2.886807E-2,4.4888172E-2,4.7327414E-2,3.41209E-2,5.3905148E-2,6.209877E-2],"categories":[],"categories_nodes":[],"categories_segments":[],"categories_sizes":[],"default_left":[0,0,0,0,0,0,0,0,0,0,0,0,0,0,0,0,0,0,0,0,0,0,0,0,0,0,0,0,0,0,0,0,0,0,0,0,0,0,0,0,0,0,0,0,0,0,0,0,0,0,0,0,0,0,0,0,0,0,0,0,0,0,0,0,0,0,0,0,0,0,0,0,0,0,0,0,0,0,0,0,0,0,0,0,0,0,0,0,0,0,0,0,0,0,0,0,0,0,0,0,0,0,0,0,0,0,0,0,0,0,0,0,0,0,0,0,0,0,0,0,0,0,0],"id":9,"left_children":[1,3,5,7,9,11,13,15,17,19,21,23,25,27,29,31,33,35,37,39,41,43,45,47,49,51,53,55,57,59,61,-1,-1,63,65,67,69,71,73,75,77,79,81,83,85,87,89,91,93,95,97,99,101,103,105,107,109,111,113,115,117,119,121,-1,-1,-1,-1,-1,-1,-1,-1,-1,-1,-1,-1,-1,-1,-1,-1,-1,-1,-1,-1,-1,-1,-1,-1,-1,-1,-1,-1,-1,-1,-1,-1,-1,-1,-1,-1,-1,-1,-1,-1,-1,-1,-1,-1,-1,-1,-1,-1,-1,-1,-1,-1,-1,-1,-1,-1,-1,-1,-1,-1],"loss_changes":[3.137206E3,8.4854456E2,7.1909424E2,1.7997803E2,2.126309E2,2.0620187E2,2.1532983E2,2.1430176E1,2.9603271E1,9.7052216E1,4.086467E1,3.734726E1,5.9108288E1,1.8085815E2,4.8125244E1,1.5466309E-1,1.2476929E1,1.6858582E1,7.8675995E0,3.2842743E1,2.0083464E1,2.2121431E1,1.1328201E1,2.5978134E1,1.998249E1,1.690168E1,2.1988998E1,4.5087013E1,5.0030457E1,1.8878052E1,1.838379E1,0E0,0E0,4.3408203E0,4.778595E0,1.0176239E1,1.2300903E1,3.8050346E0,5.347218E0,1.6677185E1,1.4316463E1,7.3281145E0,1.9457901E1,1.0147811E1,1.0160166E1,8.989273E0,8.380165E-1,4.4954834E0,5.7023506E0,9.112095E0,1.2586495E1,5.276083E0,1.051829E1,1.5926421E1,1.44824295E1,9.976158E0,1.7935411E1,2.3593185E1,2.6357483E1,1.007132E1,1.3712555E1,5.7346497E0,2.565918E0,0E0,0E0,0E0,0E0,0E0,0E0,0E0,0E0,0E0,0E0,0E0,0E0,0E0,0E0,0E0,0E0,0E0,0E0,0E0,0E0,0E0,0E0,0E0,0E0,0E0,0E0,0E0,0E0,0E0,0E0,0E0,0E0,0E0,0E0,0E0,0E0,0E0,0E0,0E0,0E0,0E0,0E0,0E0,0E0,0E0,0E0,0E0,0E0,0E0,0E0,0E0,0E0,0E0,0E0,0E0,0E0,0E0,0E0,0E0,0E0],"parents":[2147483647,0,0,1,1,2,2,3,3,4,4,5,5,6,6,7,7,8,8,9,9,10,10,11,11,12,12,13,13,14,14,15,15,16,16,17,17,18,18,19,19,20,20,21,21,22,22,23,23,24,24,25,25,26,26,27,27,28,28,29,29,30,30,33,33,34,34,35,35,36,36,37,37,38,38,39,39,40,40,41,41,42,42,43,43,44,44,45,45,46,46,47,47,48,48,49,49,50,50,51,51,52,52,53,53,54,54,55,55,56,56,57,57,58,58,59,59,60,60,61,61,62,62],"right_children":[2,4,6,8,10,12,14,16,18,20,22,24,26,28,30,32,34,36,38,40,42,44,46,48,50,52,54,56,58,60,62,-1,-1,64,66,68,70,72,74,76,78,80,82,84,86,88,90,92,94,96,98,100,102,104,106,108,110,112,114,116,118,120,122,-1,-1,-1,-1,-1,-1,-1,-1,-1,-1,-1,-1,-1,-1,-1,-1,-1,-1,-1,-1,-1,-1,-1,-1,-1,-1,-1,-1,-1,-1,-1,-1,-1,-1,-1,-1,-1,-1,-1,-1,-1,-1,-1,-1,-1,-1,-1,-1,-1,-1,-1,-1,-1,-1,-1,-1,-1,-1,-1,-1],"split_conditions":[1.5E0,3E0,3E0,2.3E2,2.24E2,2.64E2,3.04E2,1.9333333E0,3.15E2,1.3E0,3.4E1,1.7E0,2.9E1,2.8E0,4E0,2E0,1.3E0,1.3666667E0,1.3E0,4E0,2.7E1,4E0,5.266667E0,2.17E2,2.5E1,1.2E0,3.22E2,1.92E2,4E0,3.1E1,3.3E1,-4.8749197E-2,-6.958428E-2,1.56E2,2.4E1,1E0,9E0,4E1,1E0,3.7E1,2.9E1,1E0,4E0,3.15E2,1.3E0,3.38E2,1.3E0,5E0,1.1666666E0,2E0,3.1E0,2.7E1,3E0,1.7E0,3.4E1,4.0333333E0,3.7E1,2.5E1,2.4E1,6E0,1.7E0,1.3E1,4.3E1,-6.414086E-2,-5.5285294E-2,-5.914724E-2,-4.2789005E-2,-5.2857716E-2,1.6085837E-2,-1.6652515E-2,-3.720382E-2,-3.883155E-2,1.626374E-2,-1.4753081E-2,9.581346E-3,-4.594221E-2,-1.0521611E-2,-2.771248E-2,3.054916E-3,-2.1614363E-2,8.62852E-3,-2.0921992E-3,3.339928E-2,-7.2499523E-3,1.1326646E-2,4.9526608E-3,2.7871698E-2,1.3166693E-2,3.280366E-2,3.51326E-2,5.8023334E-2,-2.7641997E-2,-5.3261854E-2,-4.1639023E-2,-1.5669925E-2,2.7193828E-2,-3.3962782E-2,-1.2393187E-2,1.6294224E-2,-3.583432E-2,-1.0048425E-2,3.4262486E-2,-2.5353793E-3,-8.914228E-3,1.6575132E-2,1.6347742E-2,3.62377E-2,-2.8331025E-2,-4.373307E-3,5.0622076E-3,3.4394573E-2,7.4242502E-3,2.6387298E-2,2.2352114E-2,4.241826E-2,3.4930963E-2,1.750259E-2,2.886807E-2,4.4888172E-2,4.7327414E-2,3.41209E-2,5.3905148E-2,6.209877E-2],"split_indices":[1,2,2,5,5,5,5,3,5,1,9,1,9,1,2,13,1,3,3,2,9,2,3,5,9,3,5,5,2,9,9,0,0,5,9,14,12,9,14,9,9,14,2,5,1,5,1,13,3,13,1,4,13,1,9,3,9,4,4,13,1,12,9,0,0,0,0,0,0,0,0,0,0,0,0,0,0,0,0,0,0,0,0,0,0,0,0,0,0,0,0,0,0,0,0,0,0,0,0,0,0,0,0,0,0,0,0,0,0,0,0,0,0,0,0,0,0,0,0,0,0,0,0],"split_type":[0,0,0,0,0,0,0,0,0,0,0,0,0,0,0,0,0,0,0,0,0,0,0,0,0,0,0,0,0,0,0,0,0,0,0,0,0,0,0,0,0,0,0,0,0,0,0,0,0,0,0,0,0,0,0,0,0,0,0,0,0,0,0,0,0,0,0,0,0,0,0,0,0,0,0,0,0,0,0,0,0,0,0,0,0,0,0,0,0,0,0,0,0,0,0,0,0,0,0,0,0,0,0,0,0,0,0,0,0,0,0,0,0,0,0,0,0,0,0,0,0,0,0],"sum_hessian":[1.0850441E4,4.3039517E3,6.54649E3,2.475535E3,1.8284169E3,1.8130814E3,4.7334087E3,1.6494835E3,8.260513E2,9.06362E2,9.220548E2,7.412249E2,1.0718566E3,2.5978352E3,2.1355737E3,6.2285974E2,1.0266238E3,6.328022E2,1.9324913E2,6.062585E2,3.0010355E2,6.4270654E2,2.793483E2,3.184744E2,4.227505E2,4.3166675E2,6.4018976E2,7.021002E2,1.895735E3,1.0678693E3,1.0677045E3,1.116959E1,6.116901E2,7.5858704E2,2.6803677E2,1.8943971E2,4.4336246E2,4.198379E1,1.5126534E2,4.4367508E2,1.6258337E2,1.2972769E2,1.7037585E2,4.490834E2,1.9362314E2,2.425961E2,3.675219E1,1.8521907E2,1.3325534E2,1.3513023E2,2.8762024E2,8.336989E1,3.4829684E2,2.688493E2,3.7134045E2,1.9106781E2,5.1103238E2,9.030381E2,9.926969E2,3.3868973E2,7.291795E2,3.937034E2,6.7400104E2,4.4171832E2,3.1686874E2,7.140661E1,1.9663014E2,1.8435088E2,5.08883E0,9.509264E1,3.482698E2,3.9121277E1,2.8625157E0,1.2446675E2,2.679859E1,4.0674292E2,3.693217E1,1.036857E2,5.8897682E1,1.0564408E2,2.4083618E1,1.1271708E2,5.765878E1,3.5755243E2,9.153096E1,9.483451E1,9.8788635E1,1.4158006E2,1.0101604E2,1.2762849E1,2.3989342E1,2.303242E1,1.6218665E2,2.6303911E1,1.0695142E2,5.674199E0,1.2945604E2,2.4317973E2,4.4440525E1,4.8553547E1,3.481634E1,1.9635262E1,3.286616E2,9.299561E1,1.7585368E2,1.8195506E2,1.893854E2,1.2375241E2,6.73154E1,4.5305536E2,5.7977043E1,2.1673317E2,6.863049E2,2.1178023E2,7.809166E2,1.7028554E2,1.6840419E2,1.8781287E2,5.4136664E2,2.4713976E2,1.4656366E2,4.6960217E2,2.0439883E2],"tree_param":{"num_deleted":"0","num_feature":"16","num_nodes":"123","size_leaf_vector":"1"}},{"base_weights":[8.30849E-3,-6.9962424E-1,4.0148702E-1,-9.348259E-1,-7.708133E-2,2.6326774E-2,6.751683E-1,-1.1584733E0,-6.970802E-1,-4.029169E-1,1.7186183E-1,-3.1059128E-1,2.3942803E-1,5.0301266E-1,8.9621973E-1,-1.2403301E0,-9.31318E-1,-8.9751816E-1,-4.322483E-1,-1.1730595E0,-3.002765E-1,-2.4156967E-2,5.804121E-1,-4.7443932E-1,-3.4987193E-2,-9.1630474E-2,3.5847628E-1,3.438198E-1,6.970596E-1,7.348032E-1,1.0131948E0,-1.2520552E0,-2.7883536E-1,-1.028065E0,-5.904802E-1,-9.945725E-1,-5.9219223E-1,-6.112749E-1,-1.502289E-1,-6.292865E-2,2.0835971E-2,-4.9138463E-1,-6.381809E-2,-2.6467392E-1,1.2692781E-1,3.8370764E-1,7.655637E-1,-6.4416283E-1,-1.4412588E-1,-1.1535818E-1,3.9715216E-1,-4.1139224E-1,1.3562648E-1,1.782672E-1,5.173132E-1,1.5655479E-1,4.906618E-1,4.9212503E-1,8.3947974E-1,4.7370264E-1,7.9207736E-1,8.618635E-1,1.0809957E0,-6.318038E-2,-1.2303519E-2,-2.8601585E-2,9.602069E-3,-5.5773813E-2,-3.9519437E-2,-3.2226082E-2,5.0518084E-2,-5.2412685E-2,-3.962239E-2,-3.129549E-2,2.2706732E-2,-3.441919E-2,-6.801524E-3,-2.2540895E-2,2.870105E-3,-3.052291E-2,-6.685012E-3,-6.9427523E-3,1.8171838E-2,-2.168894E-2,8.527046E-3,2.112606E-2,2.029086E-3,1.5609706E-2,5.9300113E-2,2.3423681E-2,4.259745E-2,-4.007211E-2,-2.4489483E-2,-1.8516159E-2,-7.2623946E-4,-8.434555E-3,1.915059E-2,-1.3838666E-2,3.2656297E-2,-3.416298E-2,-1.4252946E-2,-3.5381333E-3,2.408232E-2,3.4948834E-3,2.673387E-2,2.2570094E-2,4.7067177E-2,-4.3715606E-4,1.0497396E-2,1.0102197E-2,2.9103154E-2,1.1712443E-2,3.0973209E-2,3.4730505E-2,4.4307288E-2,1.188781E-2,2.9876089E-2,3.6754753E-2,4.4493366E-2,3.1156415E-2,4.654097E-2,5.658972E-2,4.8787635E-2],"categories":[],"categories_nodes":[],"categories_segments":[],"categories_sizes":[],"default_left":[0,0,0,0,0,0,0,0,0,0,0,0,0,0,0,0,0,0,0,0,0,0,0,0,0,0,0,0,0,0,0,0,0,0,0,0,0,0,0,0,0,0,0,0,0,0,0,0,0,0,0,0,0,0,0,0,0,0,0,0,0,0,0,0,0,0,0,0,0,0,0,0,0,0,0,0,0,0,0,0,0,0,0,0,0,0,0,0,0,0,0,0,0,0,0,0,0,0,0,0,0,0,0,0,0,0,0,0,0,0,0,0,0,0,0,0,0,0,0,0,0,0,0],"id":10,"left_children":[1,3,5,7,9,11,13,15,17,19,21,23,25,27,29,31,33,35,37,39,41,43,45,47,49,51,53,55,57,59,61,63,65,67,69,71,73,75,77,-1,-1,79,81,83,85,87,89,91,93,95,97,99,101,103,105,107,109,111,113,115,117,119,121,-1,-1,-1,-1,-1,-1,-1,-1,-1,-1,-1,-1,-1,-1,-1,-1,-1,-1,-1,-1,-1,-1,-1,-1,-1,-1,-1,-1,-1,-1,-1,-1,-1,-1,-1,-1,-1,-1,-1,-1,-1,-1,-1,-1,-1,-1,-1,-1,-1,-1,-1,-1,-1,-1,-1,-1,-1,-1,-1,-1],"loss_changes":[2.9893616E3,5.614481E2,7.089369E2,1.4718115E2,8.545526E1,2.0925835E2,1.5147961E2,2.5483765E1,7.135907E1,3.5710762E1,4.7859283E1,5.0977577E1,7.039347E1,6.91626E1,3.2235718E1,1.1489502E1,1.2039459E1,2.2181519E1,2.9404045E1,7.77153E0,1.8220982E1,1.4739545E1,6.7625732E0,3.9606873E1,1.470665E1,3.4426228E1,3.7498993E1,3.3915527E1,2.911023E1,1.065448E1,9.432495E0,1.1742676E1,2.0341382E0,5.2964783E0,8.190063E0,5.4797974E0,6.9102097E0,1.2989883E1,1.4266674E1,0E0,0E0,9.425762E0,5.875227E0,1.1588962E1,6.344133E0,5.1347437E0,2.1365013E0,1.0958069E1,7.0785837E0,9.545485E0,1.1638899E1,6.562622E0,1.9832628E1,2.378496E1,1.9069305E1,4.8098307E0,1.814769E1,1.3553436E1,3.4094849E0,3.8069324E0,2.7081604E0,4.6462097E0,2.604065E0,0E0,0E0,0E0,0E0,0E0,0E0,0E0,0E0,0E0,0E0,0E0,0E0,0E0,0E0,0E0,0E0,0E0,0E0,0E0,0E0,0E0,0E0,0E0,0E0,0E0,0E0,0E0,0E0,0E0,0E0,0E0,0E0,0E0,0E0,0E0,0E0,0E0,0E0,0E0,0E0,0E0,0E0,0E0,0E0,0E0,0E0,0E0,0E0,0E0,0E0,0E0,0E0,0E0,0E0,0E0,0E0,0E0,0E0,0E0,0E0],"parents":[2147483647,0,0,1,1,2,2,3,3,4,4,5,5,6,6,7,7,8,8,9,9,10,10,11,11,12,12,13,13,14,14,15,15,16,16,17,17,18,18,19,19,20,20,21,21,22,22,23,23,24,24,25,25,26,26,27,27,28,28,29,29,30,30,31,31,32,32,33,33,34,34,35,35,36,36,37,37,38,38,41,41,42,42,43,43,44,44,45,45,46,46,47,47,48,48,49,49,50,50,51,51,52,52,53,53,54,54,55,55,56,56,57,57,58,58,59,59,60,60,61,61,62,62],"right_children":[2,4,6,8,10,12,14,16,18,20,22,24,26,28,30,32,34,36,38,40,42,44,46,48,50,52,54,56,58,60,62,64,66,68,70,72,74,76,78,-1,-1,80,82,84,86,88,90,92,94,96,98,100,102,104,106,108,110,112,114,116,118,120,122,-1,-1,-1,-1,-1,-1,-1,-1,-1,-1,-1,-1,-1,-1,-1,-1,-1,-1,-1,-1,-1,-1,-1,-1,-1,-1,-1,-1,-1,-1,-1,-1,-1,-1,-1,-1,-1,-1,-1,-1,-1,-1,-1,-1,-1,-1,-1,-1,-1,-1,-1,-1,-1,-1,-1,-1,-1,-1,-1,-1],"split_conditions":[2E1,2.5E1,2.6E1,1.1E1,1.7E0,2.7E1,4E0,2.9E1,2.8E1,8E0,3.4E1,2.8E1,1.3E0,3.2E1,3.2E1,4E0,1.3E0,2E0,1.3E0,4.6E1,3.2E1,1.3E1,3.8E1,2.1E1,3.8E1,2.64E2,4E0,2.7E1,2.7E1,1.7E0,3.04E2,3E0,4.2E1,9E0,3.1E0,3E0,4E0,3.9E1,1.5E1,-6.292865E-2,2.0835971E-2,1.8E1,3.22E2,2.87E2,1.92E2,3.51E2,1.92E2,1.3E0,1.7E0,1.5E0,1E0,2.3E1,4E0,3.15E2,3.28E2,2.1E1,1.7E0,1E0,1.7E0,2.5E2,4.6E0,1.7E0,1.1E1,-6.318038E-2,-1.2303519E-2,-2.8601585E-2,9.602069E-3,-5.5773813E-2,-3.9519437E-2,-3.2226082E-2,5.0518084E-2,-5.2412685E-2,-3.962239E-2,-3.129549E-2,2.2706732E-2,-3.441919E-2,-6.801524E-3,-2.2540895E-2,2.870105E-3,-3.052291E-2,-6.685012E-3,-6.9427523E-3,1.8171838E-2,-2.168894E-2,8.527046E-3,2.112606E-2,2.029086E-3,1.5609706E-2,5.9300113E-2,2.3423681E-2,4.259745E-2,-4.007211E-2,-2.4489483E-2,-1.8516159E-2,-7.2623946E-4,-8.434555E-3,1.915059E-2,-1.3838666E-2,3.2656297E-2,-3.416298E-2,-1.4252946E-2,-3.5381333E-3,2.408232E-2,3.4948834E-3,2.673387E-2,2.2570094E-2,4.7067177E-2,-4.3715606E-4,1.0497396E-2,1.0102197E-2,2.9103154E-2,1.1712443E-2,3.0973209E-2,3.4730505E-2,4.4307288E-2,1.188781E-2,2.9876089E-2,3.6754753E-2,4.4493366E-2,3.1156415E-2,4.654097E-2,5.658972E-2,4.8787635E-2],"split_indices":[0,4,4,0,1,0,2,9,9,0,4,9,1,4,4,2,1,7,1,4,4,0,4,4,9,5,2,0,0,1,5,7,5,0,1,2,2,9,0,0,0,0,5,5,5,5,5,1,1,1,7,9,2,5,5,0,1,11,1,5,1,1,12,0,0,0,0,0,0,0,0,0,0,0,0,0,0,0,0,0,0,0,0,0,0,0,0,0,0,0,0,0,0,0,0,0,0,0,0,0,0,0,0,0,0,0,0,0,0,0,0,0,0,0,0,0,0,0,0,0,0,0,0],"split_type":[0,0,0,0,0,0,0,0,0,0,0,0,0,0,0,0,0,0,0,0,0,0,0,0,0,0,0,0,0,0,0,0,0,0,0,0,0,0,0,0,0,0,0,0,0,0,0,0,0,0,0,0,0,0,0,0,0,0,0,0,0,0,0,0,0,0,0,0,0,0,0,0,0,0,0,0,0,0,0,0,0,0,0,0,0,0,0,0,0,0,0,0,0,0,0,0,0,0,0,0,0,0,0,0,0,0,0,0,0,0,0,0,0,0,0,0,0,0,0,0,0,0,0],"sum_hessian":[1.0737802E4,3.8339148E3,6.903887E3,2.7822551E3,1.0516598E3,2.912521E3,3.9913662E3,1.4316393E3,1.3506158E3,4.552178E2,5.964419E2,1.1282593E3,1.7842618E3,2.2456907E3,1.7456755E3,1.0491212E3,3.8251804E2,7.674116E2,5.832043E2,5.2307777E1,4.0291003E2,4.03694E2,1.9274792E2,7.0713965E2,4.2111966E2,4.719784E2,1.3122834E3,1.2351586E3,1.010532E3,7.365606E2,1.0091149E3,1.0361831E3,1.2938097E1,2.9637543E2,8.614262E1,5.8059863E2,1.8681299E2,3.5602878E2,2.2717549E2,4.9835484E1,2.4722939E0,2.222263E2,1.8068373E2,1.5546007E2,2.4823393E2,9.4947945E1,9.779998E1,4.6649332E2,2.4064633E2,3.556985E2,6.542116E1,1.957451E2,2.7623328E2,6.1577527E2,6.965082E2,5.437676E2,6.9139105E2,4.1615872E2,5.943733E2,1.3417165E2,6.02389E2,3.164693E2,6.926456E2,1.0241659E3,1.2017268E1,7.840996E0,5.097101E0,2.1398427E2,8.239116E1,8.390744E1,2.2351735E0,4.5545172E2,1.2514688E2,1.813702E2,5.44279E0,3.0594107E2,5.0087723E1,9.2333015E1,1.3484247E2,1.6619357E2,5.6032734E1,1.542657E2,2.6418022E1,1.1196053E2,4.3499523E1,5.523874E1,1.929952E2,8.845273E1,6.495217E0,2.3478258E1,7.4321724E1,2.289953E2,2.3749802E2,8.69799E1,1.5366644E2,3.2191083E2,3.378767E1,1.7986145E1,4.7435017E1,6.0703587E1,1.350415E2,1.7352626E2,1.0270703E2,4.7311633E2,1.426589E2,6.0459454E2,9.191363E1,1.3296432E2,4.1080325E2,1.670639E2,5.2432715E2,1.3850664E2,2.7765207E2,1.48684E2,4.456893E2,4.7182373E1,8.698927E1,3.859895E2,2.1639944E2,7.3172516E1,2.432968E2,4.6057944E2,2.320662E2],"tree_param":{"num_deleted":"0","num_feature":"16","num_nodes":"123","size_leaf_vector":"1"}},{"base_weights":[-4.3846564E-3,-7.7426374E-1,3.179824E-1,-9.5361036E-1,-1.5936796E-1,-5.642812E-2,6.099379E-1,-1.1173226E0,-7.174225E-1,-4.1591915E-1,1.3332461E-1,-3.782917E-1,2.1510184E-1,4.5737165E-1,8.3290267E-1,-1.1955947E0,-8.980678E-1,-8.1269556E-1,-2.6343182E-1,-4.7991395E-1,4.6068472E-1,5.384497E-2,8.4305406E-1,-5.4569185E-1,-1.1805868E-1,1.2731075E-1,6.043596E-1,3.0779055E-1,6.363308E-1,6.9886714E-1,9.620911E-1,-1.2319186E0,-7.359219E-1,-9.373615E-1,-1.748872E-1,-9.0983033E-1,-5.017789E-1,-5.885614E-1,-2.998427E-2,-1.0701429E0,-4.005642E-1,-3.7345412E-1,9.383183E-1,-7.019378E-2,5.075691E-1,9.595656E-1,4.526366E-2,-6.764218E-1,-2.5912607E-1,-2.2898483E-1,1.6194798E-1,-3.3072926E-2,3.995708E-1,4.7636572E-1,7.867155E-1,1.4249507E-1,4.65992E-1,5.0157887E-1,7.61494E-1,6.02357E-1,8.00381E-1,7.7500755E-1,1.0168471E0,-6.2357854E-2,-2.4271999E-2,-3.951628E-2,1.3342477E-2,-6.1641533E-2,-4.1851982E-2,-1.8635392E-2,1.6324382E-2,-5.027041E-2,-3.492277E-2,-2.7088061E-2,1.8987235E-2,-3.590414E-2,-7.2802315E-3,-1.3138403E-2,1.3744945E-2,-5.9803974E-2,-1.7929224E-2,-2.798148E-2,-1.1700096E-2,4.75975E-3,-3.1054182E-2,2.718529E-3,5.1529188E-2,-3.223967E-2,2.8578357E-3,-2.8580023E-4,3.3593252E-2,2.4593597E-2,5.5497695E-2,-2.8082961E-2,3.708332E-2,-4.1140925E-2,-2.9153442E-2,-1.5552374E-2,1.5068978E-2,-1.8876372E-2,-8.1266364E-4,3.8089284E-3,3.5768457E-2,-1.4152201E-2,7.4467994E-3,1.1977842E-2,2.6726836E-2,5.083357E-3,3.1164035E-2,2.3489466E-2,4.6865456E-2,4.746182E-3,2.2994716E-2,2.0899544E-2,3.1380214E-2,1.8455496E-2,3.2213014E-2,3.915921E-2,1.9402279E-2,2.421263E-2,3.4466673E-2,2.516416E-2,4.1167773E-2,4.7760773E-2,3.426249E-2,3.8277466E-2,5.2103873E-2],"categories":[],"categories_nodes":[],"categories_segments":[],"categories_sizes":[],"default_left":[0,0,0,0,0,0,0,0,0,0,0,0,0,0,0,0,0,0,0,0,0,0,0,0,0,0,0,0,0,0,0,0,0,0,0,0,0,0,0,0,0,0,0,0,0,0,0,0,0,0,0,0,0,0,0,0,0,0,0,0,0,0,0,0,0,0,0,0,0,0,0,0,0,0,0,0,0,0,0,0,0,0,0,0,0,0,0,0,0,0,0,0,0,0,0,0,0,0,0,0,0,0,0,0,0,0,0,0,0,0,0,0,0,0,0,0,0,0,0,0,0,0,0,0,0,0,0],"id":11,"left_children":[1,3,5,7,9,11,13,15,17,19,21,23,25,27,29,31,33,35,37,39,41,43,45,47,49,51,53,55,57,59,61,63,65,67,69,71,73,75,77,79,81,83,85,87,89,91,93,95,97,99,101,103,105,107,109,111,113,115,117,119,121,123,125,-1,-1,-1,-1,-1,-1,-1,-1,-1,-1,-1,-1,-1,-1,-1,-1,-1,-1,-1,-1,-1,-1,-1,-1,-1,-1,-1,-1,-1,-1,-1,-1,-1,-1,-1,-1,-1,-1,-1,-1,-1,-1,-1,-1,-1,-1,-1,-1,-1,-1,-1,-1,-1,-1,-1,-1,-1,-1,-1,-1,-1,-1,-1,-1],"loss_changes":[2.638385E3,3.4585876E2,8.1912573E2,9.311597E1,5.3346725E1,2.8708148E2,1.4283997E2,2.3514648E1,4.2915283E1,2.145079E1,1.8696735E1,6.5412796E1,6.0815674E1,6.677985E1,2.8925293E1,1.6672241E1,1.0661011E1,2.441986E1,1.3222422E1,1.6112404E1,1.0811853E1,1.6911654E1,3.0604496E0,3.4080322E1,1.835178E1,6.3557087E1,7.272743E0,3.5623108E1,1.881488E1,7.772583E0,8.100891E0,1.04765625E1,4.5526314E0,9.671204E0,2.1907172E0,1.1952637E1,7.195156E0,4.0750313E0,7.3531766E0,3.2681236E0,8.159771E0,1.2516801E0,1.3289537E0,1.733288E1,5.443012E0,1.4999428E0,2.6586945E0,8.093414E0,8.47753E0,1.3352821E1,7.915081E0,4.1748608E1,1.1523994E1,1.0674267E1,5.9357147E0,1.0055797E1,5.144104E0,1.0177216E1,4.460266E0,4.144577E0,2.3677063E0,2.5912857E0,3.4379272E0,0E0,0E0,0E0,0E0,0E0,0E0,0E0,0E0,0E0,0E0,0E0,0E0,0E0,0E0,0E0,0E0,0E0,0E0,0E0,0E0,0E0,0E0,0E0,0E0,0E0,0E0,0E0,0E0,0E0,0E0,0E0,0E0,0E0,0E0,0E0,0E0,0E0,0E0,0E0,0E0,0E0,0E0,0E0,0E0,0E0,0E0,0E0,0E0,0E0,0E0,0E0,0E0,0E0,0E0,0E0,0E0,0E0,0E0,0E0,0E0,0E0,0E0,0E0,0E0],"parents":[2147483647,0,0,1,1,2,2,3,3,4,4,5,5,6,6,7,7,8,8,9,9,10,10,11,11,12,12,13,13,14,14,15,15,16,16,17,17,18,18,19,19,20,20,21,21,22,22,23,23,24,24,25,25,26,26,27,27,28,28,29,29,30,30,31,31,32,32,33,33,34,34,35,35,36,36,37,37,38,38,39,39,40,40,41,41,42,42,43,43,44,44,45,45,46,46,47,47,48,48,49,49,50,50,51,51,52,52,53,53,54,54,55,55,56,56,57,57,58,58,59,59,60,60,61,61,62,62],"right_children":[2,4,6,8,10,12,14,16,18,20,22,24,26,28,30,32,34,36,38,40,42,44,46,48,50,52,54,56,58,60,62,64,66,68,70,72,74,76,78,80,82,84,86,88,90,92,94,96,98,100,102,104,106,108,110,112,114,116,118,120,122,124,126,-1,-1,-1,-1,-1,-1,-1,-1,-1,-1,-1,-1,-1,-1,-1,-1,-1,-1,-1,-1,-1,-1,-1,-1,-1,-1,-1,-1,-1,-1,-1,-1,-1,-1,-1,-1,-1,-1,-1,-1,-1,-1,-1,-1,-1,-1,-1,-1,-1,-1,-1,-1,-1,-1,-1,-1,-1,-1,-1,-1,-1,-1,-1,-1],"split_conditions":[1.8E1,2.6E1,2.6E1,1.1E1,3.2E1,2.7E1,4E0,8.41E2,1.089E3,1E0,3.51E2,7.84E2,1.024E3,3.2E1,3.3E1,1.6E1,3.6333334E0,2E0,1E0,8E0,1.82E2,4.1E1,2.0333333E0,2.1E1,1.225E3,2.1E1,2E0,2.7E1,2.7E1,4.4E1,2.88E2,3.9E0,1E0,6E0,4.9333334E0,7.84E2,4.1666665E0,3.1666667E0,1.5E1,3E0,2.17E2,2.8E1,1E1,9E0,2.0666666E0,3.4E1,2.3666666E0,5.76E2,4E0,2.2E1,4.366667E0,6.25E2,4E0,3.08E2,3.6333334E0,1E0,1E0,3.6E1,3.9E1,3E0,2E0,2.3E2,2E0,-6.2357854E-2,-2.4271999E-2,-3.951628E-2,1.3342477E-2,-6.1641533E-2,-4.1851982E-2,-1.8635392E-2,1.6324382E-2,-5.027041E-2,-3.492277E-2,-2.7088061E-2,1.8987235E-2,-3.590414E-2,-7.2802315E-3,-1.3138403E-2,1.3744945E-2,-5.9803974E-2,-1.7929224E-2,-2.798148E-2,-1.1700096E-2,4.75975E-3,-3.1054182E-2,2.718529E-3,5.1529188E-2,-3.223967E-2,2.8578357E-3,-2.8580023E-4,3.3593252E-2,2.4593597E-2,5.5497695E-2,-2.8082961E-2,3.708332E-2,-4.1140925E-2,-2.9153442E-2,-1.5552374E-2,1.5068978E-2,-1.8876372E-2,-8.1266364E-4,3.8089284E-3,3.5768457E-2,-1.4152201E-2,7.4467994E-3,1.1977842E-2,2.6726836E-2,5.083357E-3,3.1164035E-2,2.3489466E-2,4.6865456E-2,4.746182E-3,2.2994716E-2,2.0899544E-2,3.1380214E-2,1.8455496E-2,3.2213014E-2,3.915921E-2,1.9402279E-2,2.421263E-2,3.4466673E-2,2.516416E-2,4.1167773E-2,4.7760773E-2,3.426249E-2,3.8277466E-2,5.2103873E-2],"split_indices":[0,4,4,0,4,0,2,8,8,14,5,8,8,4,4,4,3,7,7,0,5,4,3,4,8,4,7,0,0,0,5,3,14,0,3,8,3,3,0,7,5,4,0,0,3,4,3,8,7,0,3,8,2,5,3,14,14,4,0,7,7,5,7,0,0,0,0,0,0,0,0,0,0,0,0,0,0,0,0,0,0,0,0,0,0,0,0,0,0,0,0,0,0,0,0,0,0,0,0,0,0,0,0,0,0,0,0,0,0,0,0,0,0,0,0,0,0,0,0,0,0,0,0,0,0,0,0],"split_type":[0,0,0,0,0,0,0,0,0,0,0,0,0,0,0,0,0,0,0,0,0,0,0,0,0,0,0,0,0,0,0,0,0,0,0,0,0,0,0,0,0,0,0,0,0,0,0,0,0,0,0,0,0,0,0,0,0,0,0,0,0,0,0,0,0,0,0,0,0,0,0,0,0,0,0,0,0,0,0,0,0,0,0,0,0,0,0,0,0,0,0,0,0,0,0,0,0,0,0,0,0,0,0,0,0,0,0,0,0,0,0,0,0,0,0,0,0,0,0,0,0,0,0,0,0,0,0],"sum_hessian":[1.0628785E4,3.136581E3,7.4922046E3,2.4278882E3,7.086928E2,3.2829192E3,4.209285E3,1.4317491E3,9.9613904E2,3.7743878E2,3.3125403E2,1.5020455E3,1.7808735E3,2.5009988E3,1.7082865E3,1.051809E3,3.799401E2,8.226997E2,1.7343933E2,3.52181E2,2.5257778E1,2.9886163E2,3.23924E1,9.133913E2,5.886543E2,1.454223E3,3.2665054E2,1.3638004E3,1.1371984E3,8.4156067E2,8.667259E2,9.732237E2,7.858527E1,3.600792E2,1.9860909E1,6.25392E2,1.973077E2,7.185019E1,1.0158914E2,4.0256187E1,3.1192484E2,9.276109E0,1.5981669E1,2.3536345E2,6.3498184E1,2.8087626E1,4.3047743E0,6.263107E2,2.8708054E2,4.217557E2,1.6689859E2,9.156865E2,5.385365E2,1.9405641E2,1.3259413E2,6.6787616E2,6.959243E2,5.50034E2,5.871643E2,4.349672E2,4.0659348E2,1.9967058E2,6.670553E2,9.5309656E2,2.012715E1,7.474213E1,3.8431535E0,8.840849E1,2.716707E2,1.442576E1,5.435148E0,4.2807297E2,1.9731905E2,1.891156E2,8.192087E0,5.5113724E1,1.673647E1,5.7684284E1,4.3904858E1,3.362421E1,6.6319795E0,1.58346E2,1.5357883E2,3.4197202E0,5.8563886E0,1.6606932E0,1.4320976E1,4.196339E1,1.9340005E2,1.563071E1,4.7867474E1,7.8732467E0,2.0214378E1,2.403544E0,1.9012307E0,2.408284E2,3.8548233E2,2.6314926E2,2.3931278E1,2.4788919E2,1.7386652E2,1.4548839E2,2.1410194E1,3.855782E2,5.3010834E2,2.4767316E2,2.9086337E2,5.513349E1,1.3892291E2,4.4037075E1,8.855706E1,5.819528E2,8.592334E1,5.3932385E2,1.5660048E2,2.8708447E2,2.6294952E2,5.5389636E2,3.3267967E1,1.8725853E2,2.4770866E2,3.082899E1,3.7576447E2,6.318035E1,1.3649023E2,6.37213E1,6.03334E2],"tree_param":{"num_deleted":"0","num_feature":"16","num_nodes":"127","size_leaf_vector":"1"}},{"base_weights":[8.017027E-3,-5.861804E-1,4.110172E-1,-8.207347E-1,-9.0252375E-3,1.3877936E-1,7.083856E-1,-1.0774457E0,-5.782241E-1,-2.1151124E-1,2.9541942E-1,-1.3089593E-1,3.0909923E-1,5.5763507E-1,8.7472945E-1,-1.094296E0,-1.3054123E-2,-7.461944E-1,-2.769859E-1,-5.361144E-1,-4.8686933E-2,-5.4625297E-1,3.4983948E-1,-5.539636E-1,-6.1889477E-2,-1.5074496E-2,4.0999454E-1,4.076918E-1,6.6881496E-1,7.5003E-1,9.363063E-1,-1.1419448E0,-7.032749E-1,-4.0763557E-1,3.0241042E-1,-8.7824225E-1,-4.2591962E-1,-3.959015E-1,1.13968335E-1,-7.5696737E-1,-2.1000697E-1,-9.596728E-2,4.0916863E-1,-7.160272E-1,8.890382E-1,2.3737818E-1,6.0072494E-1,-8.004628E-1,-1.4843594E-1,-1.2999798E-1,2.941875E-1,-3.6044842E-1,2.0316094E-1,1.8000622E-1,5.3717464E-1,2.8854293E-1,5.2660424E-1,5.259441E-1,7.4695045E-1,6.534957E-1,8.5008866E-1,7.316787E-1,9.586824E-1,-6.0631134E-2,-4.715393E-2,-3.860836E-2,3.4173142E-2,-3.8018238E-2,1.833213E-2,2.4947427E-2,-1.6104512E-2,-4.7499813E-2,-3.7917614E-2,-3.1841017E-2,-1.5066742E-2,-3.763954E-2,-1.5080412E-2,-2.3534251E-3,3.703743E-2,-5.295046E-2,-2.865618E-2,-1.4333307E-2,3.5691354E-2,-8.171863E-3,9.212042E-3,2.5819292E-2,-1.7510748E-2,-3.947402E-2,2.4508927E-2,9.74299E-3,5.7714917E-2,4.152484E-3,2.5932405E-2,1.864623E-2,3.9786052E-2,-4.153318E-2,3.5925824E-2,-1.394327E-2,1.2687516E-2,-8.680342E-3,1.0669283E-2,-9.185703E-3,1.8813262E-2,-2.1246105E-2,-3.8878308E-3,-2.8761447E-4,1.7340994E-2,2.2766571E-3,2.5470877E-2,2.2944141E-2,3.6343876E-2,-1.934606E-3,1.749034E-2,2.4080245E-2,3.2582983E-2,2.2273576E-2,3.879551E-2,3.3615332E-2,4.1812625E-2,2.64195E-2,3.666726E-2,4.5657877E-2,3.0772885E-2,5.0530296E-2,2.0229414E-2,4.8084404E-2,1.7268185E-3],"categories":[],"categories_nodes":[],"categories_segments":[],"categories_sizes":[],"default_left":[0,0,0,0,0,0,0,0,0,0,0,0,0,0,0,0,0,0,0,0,0,0,0,0,0,0,0,0,0,0,0,0,0,0,0,0,0,0,0,0,0,0,0,0,0,0,0,0,0,0,0,0,0,0,0,0,0,0,0,0,0,0,0,0,0,0,0,0,0,0,0,0,0,0,0,0,0,0,0,0,0,0,0,0,0,0,0,0,0,0,0,0,0,0,0,0,0,0,0,0,0,0,0,0,0,0,0,0,0,0,0,0,0,0,0,0,0,0,0,0,0,0,0,0,0,0,0],"id":12,"left_children":[1,3,5,7,9,11,13,15,17,19,21,23,25,27,29,31,33,35,37,39,41,43,45,47,49,51,53,55,57,59,61,63,65,67,69,71,73,75,77,79,81,83,85,87,89,91,93,95,97,99,101,103,105,107,109,111,113,115,117,119,121,123,125,-1,-1,-1,-1,-1,-1,-1,-1,-1,-1,-1,-1,-1,-1,-1,-1,-1,-1,-1,-1,-1,-1,-1,-1,-1,-1,-1,-1,-1,-1,-1,-1,-1,-1,-1,-1,-1,-1,-1,-1,-1,-1,-1,-1,-1,-1,-1,-1,-1,-1,-1,-1,-1,-1,-1,-1,-1,-1,-1,-1,-1,-1,-1,-1],"loss_changes":[2.537211E3,5.7966296E2,5.1100952E2,1.8892163E2,7.640143E1,1.514871E2,7.517346E1,2.6491333E1,7.912146E1,3.9312126E1,2.286663E1,3.7248566E1,6.6114975E1,2.6159698E1,1.0298584E1,2.6302612E1,3.116081E0,4.2169067E1,2.6211597E1,1.7740555E1,1.079295E1,8.0578165E0,1.2994312E1,1.777074E1,2.6693274E1,3.630663E1,4.4991608E1,9.449242E0,9.753479E0,4.067505E0,3.6715088E0,1.7060913E1,1.5873306E1,3.312487E0,1.8710855E0,5.3988037E0,7.57526E0,1.4303642E1,1.3362768E1,7.5998077E0,7.4095845E0,8.557975E0,3.9820156E0,2.8489885E0,4.5039892E-1,1.3983961E1,6.0756645E0,5.6924896E0,3.6842475E0,1.3863236E1,7.003334E0,3.3661633E0,8.862245E0,2.4357552E1,1.4401123E1,6.843832E0,1.5879517E0,6.1861954E0,3.3385925E0,2.08918E0,2.8666077E0,8.565285E0,2.3491821E0,0E0,0E0,0E0,0E0,0E0,0E0,0E0,0E0,0E0,0E0,0E0,0E0,0E0,0E0,0E0,0E0,0E0,0E0,0E0,0E0,0E0,0E0,0E0,0E0,0E0,0E0,0E0,0E0,0E0,0E0,0E0,0E0,0E0,0E0,0E0,0E0,0E0,0E0,0E0,0E0,0E0,0E0,0E0,0E0,0E0,0E0,0E0,0E0,0E0,0E0,0E0,0E0,0E0,0E0,0E0,0E0,0E0,0E0,0E0,0E0,0E0,0E0,0E0,0E0],"parents":[2147483647,0,0,1,1,2,2,3,3,4,4,5,5,6,6,7,7,8,8,9,9,10,10,11,11,12,12,13,13,14,14,15,15,16,16,17,17,18,18,19,19,20,20,21,21,22,22,23,23,24,24,25,25,26,26,27,27,28,28,29,29,30,30,31,31,32,32,33,33,34,34,35,35,36,36,37,37,38,38,39,39,40,40,41,41,42,42,43,43,44,44,45,45,46,46,47,47,48,48,49,49,50,50,51,51,52,52,53,53,54,54,55,55,56,56,57,57,58,58,59,59,60,60,61,61,62,62],"right_children":[2,4,6,8,10,12,14,16,18,20,22,24,26,28,30,32,34,36,38,40,42,44,46,48,50,52,54,56,58,60,62,64,66,68,70,72,74,76,78,80,82,84,86,88,90,92,94,96,98,100,102,104,106,108,110,112,114,116,118,120,122,124,126,-1,-1,-1,-1,-1,-1,-1,-1,-1,-1,-1,-1,-1,-1,-1,-1,-1,-1,-1,-1,-1,-1,-1,-1,-1,-1,-1,-1,-1,-1,-1,-1,-1,-1,-1,-1,-1,-1,-1,-1,-1,-1,-1,-1,-1,-1,-1,-1,-1,-1,-1,-1,-1,-1,-1,-1,-1,-1,-1,-1,-1,-1,-1,-1],"split_conditions":[2.1E1,2.6E1,2.8E1,1.2E1,3.3E1,2.8E1,4E0,4E0,8.41E2,1.3E1,8E0,5.29E2,5.76E2,3.2E1,3.2E1,2E0,5E0,2E0,3.1333334E0,9E0,1E0,4.8E1,3E0,2E1,1E0,1.4E1,2E0,2.8E1,2.7E1,4.4E1,2E0,8.41E2,1E0,8.41E2,1.296E3,1.8E1,5.76E2,1.3E1,2E0,2E0,1E0,2.7E0,4.366667E0,4E0,2.1666667E0,3.9E1,2.1E0,5.366667E0,3.0666666E0,1.156E3,1E0,5E0,4E0,1.024E3,4.4E1,2E0,1E0,4E1,3E0,3E0,1.3E1,4.733333E0,7.9E1,-6.0631134E-2,-4.715393E-2,-3.860836E-2,3.4173142E-2,-3.8018238E-2,1.833213E-2,2.4947427E-2,-1.6104512E-2,-4.7499813E-2,-3.7917614E-2,-3.1841017E-2,-1.5066742E-2,-3.763954E-2,-1.5080412E-2,-2.3534251E-3,3.703743E-2,-5.295046E-2,-2.865618E-2,-1.4333307E-2,3.5691354E-2,-8.171863E-3,9.212042E-3,2.5819292E-2,-1.7510748E-2,-3.947402E-2,2.4508927E-2,9.74299E-3,5.7714917E-2,4.152484E-3,2.5932405E-2,1.864623E-2,3.9786052E-2,-4.153318E-2,3.5925824E-2,-1.394327E-2,1.2687516E-2,-8.680342E-3,1.0669283E-2,-9.185703E-3,1.8813262E-2,-2.1246105E-2,-3.8878308E-3,-2.8761447E-4,1.7340994E-2,2.2766571E-3,2.5470877E-2,2.2944141E-2,3.6343876E-2,-1.934606E-3,1.749034E-2,2.4080245E-2,3.2582983E-2,2.2273576E-2,3.879551E-2,3.3615332E-2,4.1812625E-2,2.64195E-2,3.666726E-2,4.5657877E-2,3.0772885E-2,5.0530296E-2,2.0229414E-2,4.8084404E-2,1.7268185E-3],"split_indices":[0,4,4,0,4,0,2,2,8,0,0,8,8,4,4,7,0,7,3,12,14,4,7,4,14,4,7,0,0,0,7,8,14,8,8,0,8,0,7,7,14,3,3,7,3,4,3,3,3,8,7,2,2,8,0,7,14,4,7,7,12,3,4,0,0,0,0,0,0,0,0,0,0,0,0,0,0,0,0,0,0,0,0,0,0,0,0,0,0,0,0,0,0,0,0,0,0,0,0,0,0,0,0,0,0,0,0,0,0,0,0,0,0,0,0,0,0,0,0,0,0,0,0,0,0,0,0],"split_type":[0,0,0,0,0,0,0,0,0,0,0,0,0,0,0,0,0,0,0,0,0,0,0,0,0,0,0,0,0,0,0,0,0,0,0,0,0,0,0,0,0,0,0,0,0,0,0,0,0,0,0,0,0,0,0,0,0,0,0,0,0,0,0,0,0,0,0,0,0,0,0,0,0,0,0,0,0,0,0,0,0,0,0,0,0,0,0,0,0,0,0,0,0,0,0,0,0,0,0,0,0,0,0,0,0,0,0,0,0,0,0,0,0,0,0,0,0,0,0,0,0,0,0,0,0,0,0],"sum_hessian":[1.0593473E4,4.2809854E3,6.3124873E3,3.0436372E3,1.2373483E3,3.29626E3,3.0162273E3,1.4768574E3,1.5667797E3,7.4329095E2,4.9405722E2,1.2760549E3,2.0202052E3,1.5845594E3,1.4316677E3,1.4538143E3,2.304316E1,1.00494556E3,5.6183417E2,2.4752922E2,4.9576175E2,2.9455427E1,4.646018E2,1.7796315E2,1.0980917E3,4.797223E2,1.5404829E3,6.766541E2,9.0790533E2,4.7761942E2,9.5404834E2,1.2941875E3,1.5962679E2,1.0107978E1,1.2935183E1,7.1033527E2,2.9461023E2,4.3078937E2,1.3104482E2,1.4679356E2,1.00735664E2,4.5007523E2,4.5686512E1,2.678793E1,2.6674986E0,3.2214432E2,1.4245747E2,1.1007836E2,6.7884796E1,9.2231177E2,1.7577997E2,1.8550116E2,2.9422113E2,5.4939325E2,9.910896E2,3.3970258E2,3.3695154E2,3.2371783E2,5.841875E2,2.4692406E2,2.3069536E2,9.73638E1,8.566846E2,9.5107434E2,3.4311316E2,1.5249416E2,7.1326404E0,6.956743E0,3.151235E0,9.991711E0,2.9434714E0,4.4004517E2,2.7029013E2,1.0787865E2,1.867316E2,8.857177E1,3.422176E2,1.0499393E2,2.6050884E1,5.374088E1,9.305268E1,9.3654015E1,7.0816507E0,3.6307007E2,8.700517E1,4.0314507E1,5.372005E0,2.557594E1,1.2119899E0,1.2170666E0,1.4504318E0,2.0884793E2,1.132964E2,6.7045456E1,7.541202E1,1.0837673E2,1.7016306E0,5.1492382E1,1.6392414E1,8.1881836E2,1.0349342E2,2.5583067E1,1.501969E2,1.506412E2,3.485996E1,1.2027437E2,1.7394676E2,3.9094073E2,1.5845255E2,7.039734E2,2.871162E2,5.3627094E1,2.860755E2,2.513559E2,8.559565E1,2.4698656E2,7.673127E1,3.228551E2,2.6133237E2,9.916797E1,1.4775609E2,1.7954242E2,5.115293E1,5.142301E1,4.594079E1,8.538668E2,2.8177493E0],"tree_param":{"num_deleted":"0","num_feature":"16","num_nodes":"127","size_leaf_vector":"1"}},{"base_weights":[-9.472269E-4,-7.225615E-1,2.981611E-1,-8.640069E-1,-4.8895706E-3,-1.2769539E-2,5.6255615E-1,-9.912102E-1,-4.8946762E-1,-2.2947502E-1,3.875311E-1,-3.1491753E-1,2.2415061E-1,3.7587517E-1,7.765608E-1,-1.1250138E0,-7.8456396E-1,-9.069547E-1,-2.9817253E-1,-4.2977E-1,-7.1618035E-2,3.2453272E-1,1.0970569E0,-5.3502756E-1,-8.428487E-2,-1.2007263E-2,4.376236E-1,3.3488567E-4,4.7962102E-1,6.327341E-1,9.307074E-1,-1.1905771E0,-9.289317E-1,-9.1605616E-1,-6.2018734E-1,-9.551722E-1,6.761595E-2,-6.291444E-1,-1.5940815E-1,-5.104535E-1,8.220615E-2,-1.6175699E-1,3.0837846E-1,1.8567032E-1,5.2985895E-1,1.3048249E-2,6.1180938E-2,-7.8700817E-1,-3.5618013E-1,-3.6037812E-1,7.485685E-3,-1.24597296E-1,2.3200916E-1,2.558633E-1,6.2515837E-1,-6.836752E-2,5.009992E-1,